digraph Tree {
node [shape=box] ;
0 [label="X[0] <= 5.5\ngini = 0.498\nsamples = 33117\nvalue = [15450, 17667]"] ;
1 [label="X[0] <= 4.5\ngini = 0.124\nsamples = 15755\nvalue = [14709, 1046]"] ;
0 -> 1 [labeldistance=2.5, labelangle=45, headlabel="True"] ;
2 [label="X[5] <= 3.5\ngini = 0.047\nsamples = 13705\nvalue = [13377, 328]"] ;
1 -> 2 ;
3 [label="X[0] <= 3.5\ngini = 0.025\nsamples = 12982\nvalue = [12818, 164]"] ;
2 -> 3 ;
4 [label="X[0] <= 2.5\ngini = 0.014\nsamples = 11750\nvalue = [11666, 84]"] ;
3 -> 4 ;
5 [label="X[5] <= 2.5\ngini = 0.007\nsamples = 10001\nvalue = [9965, 36]"] ;
4 -> 5 ;
6 [label="X[4] <= 1.5\ngini = 0.005\nsamples = 9080\nvalue = [9058, 22]"] ;
5 -> 6 ;
7 [label="X[2] <= 0.5\ngini = 0.002\nsamples = 6814\nvalue = [6808, 6]"] ;
6 -> 7 ;
8 [label="X[4] <= 0.5\ngini = 0.02\nsamples = 202\nvalue = [200, 2]"] ;
7 -> 8 ;
9 [label="gini = 0.0\nsamples = 156\nvalue = [156, 0]"] ;
8 -> 9 ;
10 [label="X[5] <= 0.5\ngini = 0.083\nsamples = 46\nvalue = [44, 2]"] ;
8 -> 10 ;
11 [label="gini = 0.231\nsamples = 15\nvalue = [13, 2]"] ;
10 -> 11 ;
12 [label="gini = 0.0\nsamples = 31\nvalue = [31, 0]"] ;
10 -> 12 ;
13 [label="X[1] <= 1.5\ngini = 0.001\nsamples = 6612\nvalue = [6608, 4]"] ;
7 -> 13 ;
14 [label="gini = 0.0\nsamples = 3003\nvalue = [3003, 0]"] ;
13 -> 14 ;
15 [label="X[0] <= 0.5\ngini = 0.002\nsamples = 3609\nvalue = [3605, 4]"] ;
13 -> 15 ;
16 [label="X[1] <= 2.5\ngini = 0.001\nsamples = 1953\nvalue = [1952, 1]"] ;
15 -> 16 ;
17 [label="X[2] <= 1.5\ngini = 0.001\nsamples = 1427\nvalue = [1426, 1]"] ;
16 -> 17 ;
18 [label="gini = 0.0\nsamples = 157\nvalue = [157, 0]"] ;
17 -> 18 ;
19 [label="X[2] <= 2.5\ngini = 0.002\nsamples = 1270\nvalue = [1269, 1]"] ;
17 -> 19 ;
20 [label="X[3] <= 1.5\ngini = 0.002\nsamples = 1209\nvalue = [1208, 1]"] ;
19 -> 20 ;
21 [label="X[3] <= 0.5\ngini = 0.002\nsamples = 1180\nvalue = [1179, 1]"] ;
20 -> 21 ;
22 [label="gini = 0.0\nsamples = 17\nvalue = [17, 0]"] ;
21 -> 22 ;
23 [label="gini = 0.002\nsamples = 1163\nvalue = [1162, 1]"] ;
21 -> 23 ;
24 [label="gini = 0.0\nsamples = 29\nvalue = [29, 0]"] ;
20 -> 24 ;
25 [label="gini = 0.0\nsamples = 61\nvalue = [61, 0]"] ;
19 -> 25 ;
26 [label="gini = 0.0\nsamples = 526\nvalue = [526, 0]"] ;
16 -> 26 ;
27 [label="X[3] <= 0.5\ngini = 0.004\nsamples = 1656\nvalue = [1653, 3]"] ;
15 -> 27 ;
28 [label="X[2] <= 1.5\ngini = 0.019\nsamples = 103\nvalue = [102, 1]"] ;
27 -> 28 ;
29 [label="X[5] <= 1.5\ngini = 0.043\nsamples = 45\nvalue = [44, 1]"] ;
28 -> 29 ;
30 [label="gini = 0.069\nsamples = 28\nvalue = [27, 1]"] ;
29 -> 30 ;
31 [label="gini = 0.0\nsamples = 17\nvalue = [17, 0]"] ;
29 -> 31 ;
32 [label="gini = 0.0\nsamples = 58\nvalue = [58, 0]"] ;
28 -> 32 ;
33 [label="X[2] <= 1.5\ngini = 0.003\nsamples = 1553\nvalue = [1551, 2]"] ;
27 -> 33 ;
34 [label="gini = 0.0\nsamples = 573\nvalue = [573, 0]"] ;
33 -> 34 ;
35 [label="X[1] <= 2.5\ngini = 0.004\nsamples = 980\nvalue = [978, 2]"] ;
33 -> 35 ;
36 [label="X[0] <= 1.5\ngini = 0.006\nsamples = 657\nvalue = [655, 2]"] ;
35 -> 36 ;
37 [label="X[2] <= 2.5\ngini = 0.004\nsamples = 536\nvalue = [535, 1]"] ;
36 -> 37 ;
38 [label="X[3] <= 1.5\ngini = 0.004\nsamples = 457\nvalue = [456, 1]"] ;
37 -> 38 ;
39 [label="gini = 0.005\nsamples = 433\nvalue = [432, 1]"] ;
38 -> 39 ;
40 [label="gini = 0.0\nsamples = 24\nvalue = [24, 0]"] ;
38 -> 40 ;
41 [label="gini = 0.0\nsamples = 79\nvalue = [79, 0]"] ;
37 -> 41 ;
42 [label="X[3] <= 1.5\ngini = 0.016\nsamples = 121\nvalue = [120, 1]"] ;
36 -> 42 ;
43 [label="gini = 0.0\nsamples = 61\nvalue = [61, 0]"] ;
42 -> 43 ;
44 [label="X[3] <= 2.5\ngini = 0.033\nsamples = 60\nvalue = [59, 1]"] ;
42 -> 44 ;
45 [label="gini = 0.056\nsamples = 35\nvalue = [34, 1]"] ;
44 -> 45 ;
46 [label="gini = 0.0\nsamples = 25\nvalue = [25, 0]"] ;
44 -> 46 ;
47 [label="gini = 0.0\nsamples = 323\nvalue = [323, 0]"] ;
35 -> 47 ;
48 [label="X[1] <= 4.5\ngini = 0.014\nsamples = 2266\nvalue = [2250, 16]"] ;
6 -> 48 ;
49 [label="X[0] <= 1.5\ngini = 0.013\nsamples = 2223\nvalue = [2209, 14]"] ;
48 -> 49 ;
50 [label="X[1] <= 3.5\ngini = 0.005\nsamples = 1204\nvalue = [1201, 3]"] ;
49 -> 50 ;
51 [label="X[2] <= 2.5\ngini = 0.002\nsamples = 1090\nvalue = [1089, 1]"] ;
50 -> 51 ;
52 [label="gini = 0.0\nsamples = 787\nvalue = [787, 0]"] ;
51 -> 52 ;
53 [label="X[3] <= 2.5\ngini = 0.007\nsamples = 303\nvalue = [302, 1]"] ;
51 -> 53 ;
54 [label="gini = 0.0\nsamples = 146\nvalue = [146, 0]"] ;
53 -> 54 ;
55 [label="X[2] <= 3.5\ngini = 0.013\nsamples = 157\nvalue = [156, 1]"] ;
53 -> 55 ;
56 [label="X[1] <= 1.5\ngini = 0.024\nsamples = 82\nvalue = [81, 1]"] ;
55 -> 56 ;
57 [label="gini = 0.053\nsamples = 37\nvalue = [36, 1]"] ;
56 -> 57 ;
58 [label="gini = 0.0\nsamples = 45\nvalue = [45, 0]"] ;
56 -> 58 ;
59 [label="gini = 0.0\nsamples = 75\nvalue = [75, 0]"] ;
55 -> 59 ;
60 [label="X[0] <= 0.5\ngini = 0.034\nsamples = 114\nvalue = [112, 2]"] ;
50 -> 60 ;
61 [label="gini = 0.0\nsamples = 46\nvalue = [46, 0]"] ;
60 -> 61 ;
62 [label="X[3] <= 1.5\ngini = 0.057\nsamples = 68\nvalue = [66, 2]"] ;
60 -> 62 ;
63 [label="gini = 0.0\nsamples = 21\nvalue = [21, 0]"] ;
62 -> 63 ;
64 [label="X[2] <= 2.5\ngini = 0.081\nsamples = 47\nvalue = [45, 2]"] ;
62 -> 64 ;
65 [label="gini = 0.061\nsamples = 32\nvalue = [31, 1]"] ;
64 -> 65 ;
66 [label="gini = 0.124\nsamples = 15\nvalue = [14, 1]"] ;
64 -> 66 ;
67 [label="X[3] <= 2.5\ngini = 0.021\nsamples = 1019\nvalue = [1008, 11]"] ;
49 -> 67 ;
68 [label="X[1] <= 1.5\ngini = 0.015\nsamples = 796\nvalue = [790, 6]"] ;
67 -> 68 ;
69 [label="gini = 0.0\nsamples = 172\nvalue = [172, 0]"] ;
68 -> 69 ;
70 [label="X[5] <= 1.5\ngini = 0.019\nsamples = 624\nvalue = [618, 6]"] ;
68 -> 70 ;
71 [label="X[1] <= 2.5\ngini = 0.026\nsamples = 374\nvalue = [369, 5]"] ;
70 -> 71 ;
72 [label="X[3] <= 1.5\ngini = 0.032\nsamples = 307\nvalue = [302, 5]"] ;
71 -> 72 ;
73 [label="gini = 0.0\nsamples = 23\nvalue = [23, 0]"] ;
72 -> 73 ;
74 [label="gini = 0.035\nsamples = 284\nvalue = [279, 5]"] ;
72 -> 74 ;
75 [label="gini = 0.0\nsamples = 67\nvalue = [67, 0]"] ;
71 -> 75 ;
76 [label="X[2] <= 1.5\ngini = 0.008\nsamples = 250\nvalue = [249, 1]"] ;
70 -> 76 ;
77 [label="X[4] <= 2.5\ngini = 0.031\nsamples = 64\nvalue = [63, 1]"] ;
76 -> 77 ;
78 [label="gini = 0.0\nsamples = 32\nvalue = [32, 0]"] ;
77 -> 78 ;
79 [label="gini = 0.061\nsamples = 32\nvalue = [31, 1]"] ;
77 -> 79 ;
80 [label="gini = 0.0\nsamples = 186\nvalue = [186, 0]"] ;
76 -> 80 ;
81 [label="X[2] <= 3.5\ngini = 0.044\nsamples = 223\nvalue = [218, 5]"] ;
67 -> 81 ;
82 [label="X[1] <= 2.5\ngini = 0.024\nsamples = 168\nvalue = [166, 2]"] ;
81 -> 82 ;
83 [label="gini = 0.0\nsamples = 97\nvalue = [97, 0]"] ;
82 -> 83 ;
84 [label="X[5] <= 1.5\ngini = 0.055\nsamples = 71\nvalue = [69, 2]"] ;
82 -> 84 ;
85 [label="gini = 0.0\nsamples = 22\nvalue = [22, 0]"] ;
84 -> 85 ;
86 [label="X[4] <= 2.5\ngini = 0.078\nsamples = 49\nvalue = [47, 2]"] ;
84 -> 86 ;
87 [label="gini = 0.0\nsamples = 16\nvalue = [16, 0]"] ;
86 -> 87 ;
88 [label="X[2] <= 1.5\ngini = 0.114\nsamples = 33\nvalue = [31, 2]"] ;
86 -> 88 ;
89 [label="gini = 0.105\nsamples = 18\nvalue = [17, 1]"] ;
88 -> 89 ;
90 [label="gini = 0.124\nsamples = 15\nvalue = [14, 1]"] ;
88 -> 90 ;
91 [label="X[3] <= 3.5\ngini = 0.103\nsamples = 55\nvalue = [52, 3]"] ;
81 -> 91 ;
92 [label="X[1] <= 1.5\ngini = 0.17\nsamples = 32\nvalue = [29, 3]"] ;
91 -> 92 ;
93 [label="gini = 0.208\nsamples = 17\nvalue = [15, 2]"] ;
92 -> 93 ;
94 [label="gini = 0.124\nsamples = 15\nvalue = [14, 1]"] ;
92 -> 94 ;
95 [label="gini = 0.0\nsamples = 23\nvalue = [23, 0]"] ;
91 -> 95 ;
96 [label="X[0] <= 1.5\ngini = 0.089\nsamples = 43\nvalue = [41, 2]"] ;
48 -> 96 ;
97 [label="gini = 0.0\nsamples = 28\nvalue = [28, 0]"] ;
96 -> 97 ;
98 [label="gini = 0.231\nsamples = 15\nvalue = [13, 2]"] ;
96 -> 98 ;
99 [label="X[2] <= 3.5\ngini = 0.03\nsamples = 921\nvalue = [907, 14]"] ;
5 -> 99 ;
100 [label="X[1] <= 3.5\ngini = 0.016\nsamples = 768\nvalue = [762, 6]"] ;
99 -> 100 ;
101 [label="X[4] <= 1.5\ngini = 0.012\nsamples = 672\nvalue = [668, 4]"] ;
100 -> 101 ;
102 [label="X[0] <= 1.5\ngini = 0.019\nsamples = 417\nvalue = [413, 4]"] ;
101 -> 102 ;
103 [label="X[0] <= 0.5\ngini = 0.008\nsamples = 258\nvalue = [257, 1]"] ;
102 -> 103 ;
104 [label="gini = 0.0\nsamples = 124\nvalue = [124, 0]"] ;
103 -> 104 ;
105 [label="X[2] <= 1.5\ngini = 0.015\nsamples = 134\nvalue = [133, 1]"] ;
103 -> 105 ;
106 [label="X[1] <= 2.5\ngini = 0.027\nsamples = 74\nvalue = [73, 1]"] ;
105 -> 106 ;
107 [label="X[1] <= 1.5\ngini = 0.04\nsamples = 49\nvalue = [48, 1]"] ;
106 -> 107 ;
108 [label="gini = 0.0\nsamples = 24\nvalue = [24, 0]"] ;
107 -> 108 ;
109 [label="gini = 0.077\nsamples = 25\nvalue = [24, 1]"] ;
107 -> 109 ;
110 [label="gini = 0.0\nsamples = 25\nvalue = [25, 0]"] ;
106 -> 110 ;
111 [label="gini = 0.0\nsamples = 60\nvalue = [60, 0]"] ;
105 -> 111 ;
112 [label="X[4] <= 0.5\ngini = 0.037\nsamples = 159\nvalue = [156, 3]"] ;
102 -> 112 ;
113 [label="gini = 0.0\nsamples = 46\nvalue = [46, 0]"] ;
112 -> 113 ;
114 [label="X[3] <= 2.5\ngini = 0.052\nsamples = 113\nvalue = [110, 3]"] ;
112 -> 114 ;
115 [label="X[3] <= 1.5\ngini = 0.067\nsamples = 86\nvalue = [83, 3]"] ;
114 -> 115 ;
116 [label="X[1] <= 2.5\ngini = 0.033\nsamples = 60\nvalue = [59, 1]"] ;
115 -> 116 ;
117 [label="gini = 0.0\nsamples = 38\nvalue = [38, 0]"] ;
116 -> 117 ;
118 [label="gini = 0.087\nsamples = 22\nvalue = [21, 1]"] ;
116 -> 118 ;
119 [label="gini = 0.142\nsamples = 26\nvalue = [24, 2]"] ;
115 -> 119 ;
120 [label="gini = 0.0\nsamples = 27\nvalue = [27, 0]"] ;
114 -> 120 ;
121 [label="gini = 0.0\nsamples = 255\nvalue = [255, 0]"] ;
101 -> 121 ;
122 [label="X[2] <= 1.5\ngini = 0.041\nsamples = 96\nvalue = [94, 2]"] ;
100 -> 122 ;
123 [label="gini = 0.0\nsamples = 50\nvalue = [50, 0]"] ;
122 -> 123 ;
124 [label="X[0] <= 1.5\ngini = 0.083\nsamples = 46\nvalue = [44, 2]"] ;
122 -> 124 ;
125 [label="gini = 0.159\nsamples = 23\nvalue = [21, 2]"] ;
124 -> 125 ;
126 [label="gini = 0.0\nsamples = 23\nvalue = [23, 0]"] ;
124 -> 126 ;
127 [label="X[4] <= 2.5\ngini = 0.099\nsamples = 153\nvalue = [145, 8]"] ;
99 -> 127 ;
128 [label="X[4] <= 0.5\ngini = 0.058\nsamples = 101\nvalue = [98, 3]"] ;
127 -> 128 ;
129 [label="gini = 0.137\nsamples = 27\nvalue = [25, 2]"] ;
128 -> 129 ;
130 [label="X[4] <= 1.5\ngini = 0.027\nsamples = 74\nvalue = [73, 1]"] ;
128 -> 130 ;
131 [label="gini = 0.0\nsamples = 54\nvalue = [54, 0]"] ;
130 -> 131 ;
132 [label="gini = 0.095\nsamples = 20\nvalue = [19, 1]"] ;
130 -> 132 ;
133 [label="X[0] <= 1.5\ngini = 0.174\nsamples = 52\nvalue = [47, 5]"] ;
127 -> 133 ;
134 [label="gini = 0.124\nsamples = 30\nvalue = [28, 2]"] ;
133 -> 134 ;
135 [label="gini = 0.236\nsamples = 22\nvalue = [19, 3]"] ;
133 -> 135 ;
136 [label="X[2] <= 4.5\ngini = 0.053\nsamples = 1749\nvalue = [1701, 48]"] ;
4 -> 136 ;
137 [label="X[5] <= 2.5\ngini = 0.046\nsamples = 1691\nvalue = [1651, 40]"] ;
136 -> 137 ;
138 [label="X[1] <= 1.5\ngini = 0.032\nsamples = 1179\nvalue = [1160, 19]"] ;
137 -> 138 ;
139 [label="X[3] <= 0.5\ngini = 0.007\nsamples = 295\nvalue = [294, 1]"] ;
138 -> 139 ;
140 [label="gini = 0.105\nsamples = 18\nvalue = [17, 1]"] ;
139 -> 140 ;
141 [label="gini = 0.0\nsamples = 277\nvalue = [277, 0]"] ;
139 -> 141 ;
142 [label="X[2] <= 3.5\ngini = 0.04\nsamples = 884\nvalue = [866, 18]"] ;
138 -> 142 ;
143 [label="X[5] <= 1.5\ngini = 0.032\nsamples = 799\nvalue = [786, 13]"] ;
142 -> 143 ;
144 [label="X[4] <= 2.5\ngini = 0.05\nsamples = 310\nvalue = [302, 8]"] ;
143 -> 144 ;
145 [label="X[2] <= 2.5\ngini = 0.06\nsamples = 260\nvalue = [252, 8]"] ;
144 -> 145 ;
146 [label="X[4] <= 1.5\ngini = 0.066\nsamples = 233\nvalue = [225, 8]"] ;
145 -> 146 ;
147 [label="X[2] <= 1.5\ngini = 0.043\nsamples = 45\nvalue = [44, 1]"] ;
146 -> 147 ;
148 [label="gini = 0.091\nsamples = 21\nvalue = [20, 1]"] ;
147 -> 148 ;
149 [label="gini = 0.0\nsamples = 24\nvalue = [24, 0]"] ;
147 -> 149 ;
150 [label="gini = 0.072\nsamples = 188\nvalue = [181, 7]"] ;
146 -> 150 ;
151 [label="gini = 0.0\nsamples = 27\nvalue = [27, 0]"] ;
145 -> 151 ;
152 [label="gini = 0.0\nsamples = 50\nvalue = [50, 0]"] ;
144 -> 152 ;
153 [label="X[2] <= 1.5\ngini = 0.02\nsamples = 489\nvalue = [484, 5]"] ;
143 -> 153 ;
154 [label="gini = 0.0\nsamples = 100\nvalue = [100, 0]"] ;
153 -> 154 ;
155 [label="X[1] <= 2.5\ngini = 0.025\nsamples = 389\nvalue = [384, 5]"] ;
153 -> 155 ;
156 [label="X[4] <= 2.5\ngini = 0.016\nsamples = 252\nvalue = [250, 2]"] ;
155 -> 156 ;
157 [label="X[4] <= 1.5\ngini = 0.009\nsamples = 216\nvalue = [215, 1]"] ;
156 -> 157 ;
158 [label="gini = 0.0\nsamples = 51\nvalue = [51, 0]"] ;
157 -> 158 ;
159 [label="gini = 0.012\nsamples = 165\nvalue = [164, 1]"] ;
157 -> 159 ;
160 [label="X[2] <= 2.5\ngini = 0.054\nsamples = 36\nvalue = [35, 1]"] ;
156 -> 160 ;
161 [label="gini = 0.0\nsamples = 20\nvalue = [20, 0]"] ;
160 -> 161 ;
162 [label="gini = 0.117\nsamples = 16\nvalue = [15, 1]"] ;
160 -> 162 ;
163 [label="X[4] <= 2.5\ngini = 0.043\nsamples = 137\nvalue = [134, 3]"] ;
155 -> 163 ;
164 [label="X[3] <= 2.5\ngini = 0.064\nsamples = 90\nvalue = [87, 3]"] ;
163 -> 164 ;
165 [label="X[2] <= 2.5\ngini = 0.089\nsamples = 64\nvalue = [61, 3]"] ;
164 -> 165 ;
166 [label="gini = 0.121\nsamples = 31\nvalue = [29, 2]"] ;
165 -> 166 ;
167 [label="X[4] <= 1.5\ngini = 0.059\nsamples = 33\nvalue = [32, 1]"] ;
165 -> 167 ;
168 [label="gini = 0.0\nsamples = 18\nvalue = [18, 0]"] ;
167 -> 168 ;
169 [label="gini = 0.124\nsamples = 15\nvalue = [14, 1]"] ;
167 -> 169 ;
170 [label="gini = 0.0\nsamples = 26\nvalue = [26, 0]"] ;
164 -> 170 ;
171 [label="gini = 0.0\nsamples = 47\nvalue = [47, 0]"] ;
163 -> 171 ;
172 [label="X[3] <= 3.5\ngini = 0.111\nsamples = 85\nvalue = [80, 5]"] ;
142 -> 172 ;
173 [label="X[3] <= 2.5\ngini = 0.056\nsamples = 69\nvalue = [67, 2]"] ;
172 -> 173 ;
174 [label="gini = 0.0\nsamples = 43\nvalue = [43, 0]"] ;
173 -> 174 ;
175 [label="gini = 0.142\nsamples = 26\nvalue = [24, 2]"] ;
173 -> 175 ;
176 [label="gini = 0.305\nsamples = 16\nvalue = [13, 3]"] ;
172 -> 176 ;
177 [label="X[4] <= 2.5\ngini = 0.079\nsamples = 512\nvalue = [491, 21]"] ;
137 -> 177 ;
178 [label="X[1] <= 3.5\ngini = 0.045\nsamples = 346\nvalue = [338, 8]"] ;
177 -> 178 ;
179 [label="X[1] <= 2.5\ngini = 0.032\nsamples = 303\nvalue = [298, 5]"] ;
178 -> 179 ;
180 [label="X[4] <= 1.5\ngini = 0.059\nsamples = 165\nvalue = [160, 5]"] ;
179 -> 180 ;
181 [label="X[1] <= 1.5\ngini = 0.085\nsamples = 113\nvalue = [108, 5]"] ;
180 -> 181 ;
182 [label="X[3] <= 2.5\ngini = 0.038\nsamples = 52\nvalue = [51, 1]"] ;
181 -> 182 ;
183 [label="gini = 0.0\nsamples = 35\nvalue = [35, 0]"] ;
182 -> 183 ;
184 [label="gini = 0.111\nsamples = 17\nvalue = [16, 1]"] ;
182 -> 184 ;
185 [label="X[3] <= 1.5\ngini = 0.123\nsamples = 61\nvalue = [57, 4]"] ;
181 -> 185 ;
186 [label="gini = 0.153\nsamples = 36\nvalue = [33, 3]"] ;
185 -> 186 ;
187 [label="gini = 0.077\nsamples = 25\nvalue = [24, 1]"] ;
185 -> 187 ;
188 [label="gini = 0.0\nsamples = 52\nvalue = [52, 0]"] ;
180 -> 188 ;
189 [label="gini = 0.0\nsamples = 138\nvalue = [138, 0]"] ;
179 -> 189 ;
190 [label="X[3] <= 1.5\ngini = 0.13\nsamples = 43\nvalue = [40, 3]"] ;
178 -> 190 ;
191 [label="gini = 0.0\nsamples = 19\nvalue = [19, 0]"] ;
190 -> 191 ;
192 [label="gini = 0.219\nsamples = 24\nvalue = [21, 3]"] ;
190 -> 192 ;
193 [label="X[1] <= 1.5\ngini = 0.144\nsamples = 166\nvalue = [153, 13]"] ;
177 -> 193 ;
194 [label="gini = 0.252\nsamples = 27\nvalue = [23, 4]"] ;
193 -> 194 ;
195 [label="X[4] <= 3.5\ngini = 0.121\nsamples = 139\nvalue = [130, 9]"] ;
193 -> 195 ;
196 [label="X[2] <= 1.5\ngini = 0.07\nsamples = 82\nvalue = [79, 3]"] ;
195 -> 196 ;
197 [label="gini = 0.0\nsamples = 24\nvalue = [24, 0]"] ;
196 -> 197 ;
198 [label="X[2] <= 2.5\ngini = 0.098\nsamples = 58\nvalue = [55, 3]"] ;
196 -> 198 ;
199 [label="gini = 0.159\nsamples = 23\nvalue = [21, 2]"] ;
198 -> 199 ;
200 [label="X[3] <= 2.5\ngini = 0.056\nsamples = 35\nvalue = [34, 1]"] ;
198 -> 200 ;
201 [label="gini = 0.117\nsamples = 16\nvalue = [15, 1]"] ;
200 -> 201 ;
202 [label="gini = 0.0\nsamples = 19\nvalue = [19, 0]"] ;
200 -> 202 ;
203 [label="X[3] <= 3.5\ngini = 0.188\nsamples = 57\nvalue = [51, 6]"] ;
195 -> 203 ;
204 [label="X[2] <= 1.5\ngini = 0.245\nsamples = 42\nvalue = [36, 6]"] ;
203 -> 204 ;
205 [label="gini = 0.188\nsamples = 19\nvalue = [17, 2]"] ;
204 -> 205 ;
206 [label="gini = 0.287\nsamples = 23\nvalue = [19, 4]"] ;
204 -> 206 ;
207 [label="gini = 0.0\nsamples = 15\nvalue = [15, 0]"] ;
203 -> 207 ;
208 [label="X[1] <= 1.5\ngini = 0.238\nsamples = 58\nvalue = [50, 8]"] ;
136 -> 208 ;
209 [label="gini = 0.077\nsamples = 25\nvalue = [24, 1]"] ;
208 -> 209 ;
210 [label="gini = 0.334\nsamples = 33\nvalue = [26, 7]"] ;
208 -> 210 ;
211 [label="X[2] <= 4.5\ngini = 0.121\nsamples = 1232\nvalue = [1152, 80]"] ;
3 -> 211 ;
212 [label="X[3] <= 3.5\ngini = 0.108\nsamples = 1170\nvalue = [1103, 67]"] ;
211 -> 212 ;
213 [label="X[2] <= 3.5\ngini = 0.09\nsamples = 1056\nvalue = [1006, 50]"] ;
212 -> 213 ;
214 [label="X[1] <= 3.5\ngini = 0.074\nsamples = 933\nvalue = [897, 36]"] ;
213 -> 214 ;
215 [label="X[4] <= 2.5\ngini = 0.066\nsamples = 820\nvalue = [792, 28]"] ;
214 -> 215 ;
216 [label="X[5] <= 1.5\ngini = 0.053\nsamples = 661\nvalue = [643, 18]"] ;
215 -> 216 ;
217 [label="X[2] <= 2.5\ngini = 0.13\nsamples = 129\nvalue = [120, 9]"] ;
216 -> 217 ;
218 [label="gini = 0.071\nsamples = 27\nvalue = [26, 1]"] ;
217 -> 218 ;
219 [label="gini = 0.145\nsamples = 102\nvalue = [94, 8]"] ;
217 -> 219 ;
220 [label="X[3] <= 2.5\ngini = 0.033\nsamples = 532\nvalue = [523, 9]"] ;
216 -> 220 ;
221 [label="X[4] <= 1.5\ngini = 0.018\nsamples = 434\nvalue = [430, 4]"] ;
220 -> 221 ;
222 [label="X[2] <= 2.5\ngini = 0.055\nsamples = 141\nvalue = [137, 4]"] ;
221 -> 222 ;
223 [label="gini = 0.0\nsamples = 80\nvalue = [80, 0]"] ;
222 -> 223 ;
224 [label="X[5] <= 2.5\ngini = 0.123\nsamples = 61\nvalue = [57, 4]"] ;
222 -> 224 ;
225 [label="gini = 0.0\nsamples = 31\nvalue = [31, 0]"] ;
224 -> 225 ;
226 [label="gini = 0.231\nsamples = 30\nvalue = [26, 4]"] ;
224 -> 226 ;
227 [label="gini = 0.0\nsamples = 293\nvalue = [293, 0]"] ;
221 -> 227 ;
228 [label="X[1] <= 1.5\ngini = 0.097\nsamples = 98\nvalue = [93, 5]"] ;
220 -> 228 ;
229 [label="gini = 0.188\nsamples = 19\nvalue = [17, 2]"] ;
228 -> 229 ;
230 [label="X[1] <= 2.5\ngini = 0.073\nsamples = 79\nvalue = [76, 3]"] ;
228 -> 230 ;
231 [label="gini = 0.0\nsamples = 32\nvalue = [32, 0]"] ;
230 -> 231 ;
232 [label="X[2] <= 2.5\ngini = 0.12\nsamples = 47\nvalue = [44, 3]"] ;
230 -> 232 ;
233 [label="gini = 0.083\nsamples = 23\nvalue = [22, 1]"] ;
232 -> 233 ;
234 [label="gini = 0.153\nsamples = 24\nvalue = [22, 2]"] ;
232 -> 234 ;
235 [label="X[5] <= 2.5\ngini = 0.118\nsamples = 159\nvalue = [149, 10]"] ;
215 -> 235 ;
236 [label="X[4] <= 3.5\ngini = 0.051\nsamples = 77\nvalue = [75, 2]"] ;
235 -> 236 ;
237 [label="gini = 0.0\nsamples = 50\nvalue = [50, 0]"] ;
236 -> 237 ;
238 [label="gini = 0.137\nsamples = 27\nvalue = [25, 2]"] ;
236 -> 238 ;
239 [label="X[2] <= 2.5\ngini = 0.176\nsamples = 82\nvalue = [74, 8]"] ;
235 -> 239 ;
240 [label="X[3] <= 2.5\ngini = 0.105\nsamples = 54\nvalue = [51, 3]"] ;
239 -> 240 ;
241 [label="gini = 0.18\nsamples = 30\nvalue = [27, 3]"] ;
240 -> 241 ;
242 [label="gini = 0.0\nsamples = 24\nvalue = [24, 0]"] ;
240 -> 242 ;
243 [label="gini = 0.293\nsamples = 28\nvalue = [23, 5]"] ;
239 -> 243 ;
244 [label="X[5] <= 2.5\ngini = 0.132\nsamples = 113\nvalue = [105, 8]"] ;
214 -> 244 ;
245 [label="gini = 0.0\nsamples = 51\nvalue = [51, 0]"] ;
244 -> 245 ;
246 [label="X[3] <= 2.5\ngini = 0.225\nsamples = 62\nvalue = [54, 8]"] ;
244 -> 246 ;
247 [label="X[2] <= 2.5\ngini = 0.298\nsamples = 44\nvalue = [36, 8]"] ;
246 -> 247 ;
248 [label="gini = 0.133\nsamples = 28\nvalue = [26, 2]"] ;
247 -> 248 ;
249 [label="gini = 0.469\nsamples = 16\nvalue = [10, 6]"] ;
247 -> 249 ;
250 [label="gini = 0.0\nsamples = 18\nvalue = [18, 0]"] ;
246 -> 250 ;
251 [label="X[3] <= 1.5\ngini = 0.202\nsamples = 123\nvalue = [109, 14]"] ;
213 -> 251 ;
252 [label="X[4] <= 1.5\ngini = 0.097\nsamples = 39\nvalue = [37, 2]"] ;
251 -> 252 ;
253 [label="gini = 0.219\nsamples = 16\nvalue = [14, 2]"] ;
252 -> 253 ;
254 [label="gini = 0.0\nsamples = 23\nvalue = [23, 0]"] ;
252 -> 254 ;
255 [label="X[4] <= 1.5\ngini = 0.245\nsamples = 84\nvalue = [72, 12]"] ;
251 -> 255 ;
256 [label="X[5] <= 2.5\ngini = 0.188\nsamples = 38\nvalue = [34, 4]"] ;
255 -> 256 ;
257 [label="gini = 0.0\nsamples = 18\nvalue = [18, 0]"] ;
256 -> 257 ;
258 [label="gini = 0.32\nsamples = 20\nvalue = [16, 4]"] ;
256 -> 258 ;
259 [label="X[3] <= 2.5\ngini = 0.287\nsamples = 46\nvalue = [38, 8]"] ;
255 -> 259 ;
260 [label="gini = 0.351\nsamples = 22\nvalue = [17, 5]"] ;
259 -> 260 ;
261 [label="gini = 0.219\nsamples = 24\nvalue = [21, 3]"] ;
259 -> 261 ;
262 [label="X[4] <= 2.5\ngini = 0.254\nsamples = 114\nvalue = [97, 17]"] ;
212 -> 262 ;
263 [label="X[2] <= 3.5\ngini = 0.1\nsamples = 57\nvalue = [54, 3]"] ;
262 -> 263 ;
264 [label="X[1] <= 2.5\ngini = 0.165\nsamples = 33\nvalue = [30, 3]"] ;
263 -> 264 ;
265 [label="gini = 0.231\nsamples = 15\nvalue = [13, 2]"] ;
264 -> 265 ;
266 [label="gini = 0.105\nsamples = 18\nvalue = [17, 1]"] ;
264 -> 266 ;
267 [label="gini = 0.0\nsamples = 24\nvalue = [24, 0]"] ;
263 -> 267 ;
268 [label="X[5] <= 2.5\ngini = 0.371\nsamples = 57\nvalue = [43, 14]"] ;
262 -> 268 ;
269 [label="gini = 0.087\nsamples = 22\nvalue = [21, 1]"] ;
268 -> 269 ;
270 [label="X[2] <= 2.5\ngini = 0.467\nsamples = 35\nvalue = [22, 13]"] ;
268 -> 270 ;
271 [label="gini = 0.48\nsamples = 15\nvalue = [9, 6]"] ;
270 -> 271 ;
272 [label="gini = 0.455\nsamples = 20\nvalue = [13, 7]"] ;
270 -> 272 ;
273 [label="X[3] <= 1.5\ngini = 0.331\nsamples = 62\nvalue = [49, 13]"] ;
211 -> 273 ;
274 [label="gini = 0.43\nsamples = 16\nvalue = [11, 5]"] ;
273 -> 274 ;
275 [label="X[4] <= 1.5\ngini = 0.287\nsamples = 46\nvalue = [38, 8]"] ;
273 -> 275 ;
276 [label="gini = 0.111\nsamples = 17\nvalue = [16, 1]"] ;
275 -> 276 ;
277 [label="gini = 0.366\nsamples = 29\nvalue = [22, 7]"] ;
275 -> 277 ;
278 [label="X[2] <= 1.5\ngini = 0.351\nsamples = 723\nvalue = [559, 164]"] ;
2 -> 278 ;
279 [label="X[1] <= 3.5\ngini = 0.062\nsamples = 157\nvalue = [152, 5]"] ;
278 -> 279 ;
280 [label="X[0] <= 3.5\ngini = 0.017\nsamples = 117\nvalue = [116, 1]"] ;
279 -> 280 ;
281 [label="gini = 0.0\nsamples = 102\nvalue = [102, 0]"] ;
280 -> 281 ;
282 [label="gini = 0.124\nsamples = 15\nvalue = [14, 1]"] ;
280 -> 282 ;
283 [label="X[4] <= 2.5\ngini = 0.18\nsamples = 40\nvalue = [36, 4]"] ;
279 -> 283 ;
284 [label="gini = 0.245\nsamples = 21\nvalue = [18, 3]"] ;
283 -> 284 ;
285 [label="gini = 0.1\nsamples = 19\nvalue = [18, 1]"] ;
283 -> 285 ;
286 [label="X[0] <= 0.5\ngini = 0.404\nsamples = 566\nvalue = [407, 159]"] ;
278 -> 286 ;
287 [label="X[1] <= 2.5\ngini = 0.496\nsamples = 92\nvalue = [42, 50]"] ;
286 -> 287 ;
288 [label="gini = 0.399\nsamples = 69\nvalue = [19, 50]"] ;
287 -> 288 ;
289 [label="gini = 0.0\nsamples = 23\nvalue = [23, 0]"] ;
287 -> 289 ;
290 [label="X[0] <= 3.5\ngini = 0.354\nsamples = 474\nvalue = [365, 109]"] ;
286 -> 290 ;
291 [label="X[4] <= 3.5\ngini = 0.225\nsamples = 278\nvalue = [242, 36]"] ;
290 -> 291 ;
292 [label="X[4] <= 1.5\ngini = 0.19\nsamples = 245\nvalue = [219, 26]"] ;
291 -> 292 ;
293 [label="X[5] <= 4.5\ngini = 0.128\nsamples = 102\nvalue = [95, 7]"] ;
292 -> 293 ;
294 [label="X[0] <= 1.5\ngini = 0.091\nsamples = 84\nvalue = [80, 4]"] ;
293 -> 294 ;
295 [label="gini = 0.185\nsamples = 29\nvalue = [26, 3]"] ;
294 -> 295 ;
296 [label="X[2] <= 3.5\ngini = 0.036\nsamples = 55\nvalue = [54, 1]"] ;
294 -> 296 ;
297 [label="gini = 0.0\nsamples = 37\nvalue = [37, 0]"] ;
296 -> 297 ;
298 [label="gini = 0.105\nsamples = 18\nvalue = [17, 1]"] ;
296 -> 298 ;
299 [label="gini = 0.278\nsamples = 18\nvalue = [15, 3]"] ;
293 -> 299 ;
300 [label="X[2] <= 2.5\ngini = 0.23\nsamples = 143\nvalue = [124, 19]"] ;
292 -> 300 ;
301 [label="X[0] <= 2.5\ngini = 0.264\nsamples = 96\nvalue = [81, 15]"] ;
300 -> 301 ;
302 [label="gini = 0.303\nsamples = 43\nvalue = [35, 8]"] ;
301 -> 302 ;
303 [label="gini = 0.229\nsamples = 53\nvalue = [46, 7]"] ;
301 -> 303 ;
304 [label="X[4] <= 2.5\ngini = 0.156\nsamples = 47\nvalue = [43, 4]"] ;
300 -> 304 ;
305 [label="gini = 0.08\nsamples = 24\nvalue = [23, 1]"] ;
304 -> 305 ;
306 [label="gini = 0.227\nsamples = 23\nvalue = [20, 3]"] ;
304 -> 306 ;
307 [label="gini = 0.422\nsamples = 33\nvalue = [23, 10]"] ;
291 -> 307 ;
308 [label="X[5] <= 4.5\ngini = 0.467\nsamples = 196\nvalue = [123, 73]"] ;
290 -> 308 ;
309 [label="X[2] <= 3.5\ngini = 0.435\nsamples = 172\nvalue = [117, 55]"] ;
308 -> 309 ;
310 [label="X[4] <= 3.5\ngini = 0.373\nsamples = 129\nvalue = [97, 32]"] ;
309 -> 310 ;
311 [label="X[2] <= 2.5\ngini = 0.398\nsamples = 113\nvalue = [82, 31]"] ;
310 -> 311 ;
312 [label="gini = 0.245\nsamples = 21\nvalue = [18, 3]"] ;
311 -> 312 ;
313 [label="gini = 0.423\nsamples = 92\nvalue = [64, 28]"] ;
311 -> 313 ;
314 [label="gini = 0.117\nsamples = 16\nvalue = [15, 1]"] ;
310 -> 314 ;
315 [label="X[4] <= 2.5\ngini = 0.498\nsamples = 43\nvalue = [20, 23]"] ;
309 -> 315 ;
316 [label="gini = 0.469\nsamples = 24\nvalue = [15, 9]"] ;
315 -> 316 ;
317 [label="gini = 0.388\nsamples = 19\nvalue = [5, 14]"] ;
315 -> 317 ;
318 [label="gini = 0.375\nsamples = 24\nvalue = [6, 18]"] ;
308 -> 318 ;
319 [label="X[5] <= 3.5\ngini = 0.455\nsamples = 2050\nvalue = [1332, 718]"] ;
1 -> 319 ;
320 [label="X[2] <= 3.5\ngini = 0.369\nsamples = 1373\nvalue = [1038, 335]"] ;
319 -> 320 ;
321 [label="X[3] <= 2.5\ngini = 0.324\nsamples = 974\nvalue = [776, 198]"] ;
320 -> 321 ;
322 [label="X[4] <= 2.5\ngini = 0.273\nsamples = 643\nvalue = [538, 105]"] ;
321 -> 322 ;
323 [label="X[4] <= 0.5\ngini = 0.235\nsamples = 486\nvalue = [420, 66]"] ;
322 -> 323 ;
324 [label="X[1] <= 2.5\ngini = 0.375\nsamples = 56\nvalue = [42, 14]"] ;
323 -> 324 ;
325 [label="gini = 0.219\nsamples = 24\nvalue = [21, 3]"] ;
324 -> 325 ;
326 [label="gini = 0.451\nsamples = 32\nvalue = [21, 11]"] ;
324 -> 326 ;
327 [label="X[2] <= 2.5\ngini = 0.213\nsamples = 430\nvalue = [378, 52]"] ;
323 -> 327 ;
328 [label="X[1] <= 3.5\ngini = 0.3\nsamples = 109\nvalue = [89, 20]"] ;
327 -> 328 ;
329 [label="X[4] <= 1.5\ngini = 0.257\nsamples = 86\nvalue = [73, 13]"] ;
328 -> 329 ;
330 [label="X[1] <= 2.5\ngini = 0.172\nsamples = 42\nvalue = [38, 4]"] ;
329 -> 330 ;
331 [label="gini = 0.083\nsamples = 23\nvalue = [22, 1]"] ;
330 -> 331 ;
332 [label="gini = 0.266\nsamples = 19\nvalue = [16, 3]"] ;
330 -> 332 ;
333 [label="X[5] <= 2.5\ngini = 0.325\nsamples = 44\nvalue = [35, 9]"] ;
329 -> 333 ;
334 [label="gini = 0.298\nsamples = 22\nvalue = [18, 4]"] ;
333 -> 334 ;
335 [label="gini = 0.351\nsamples = 22\nvalue = [17, 5]"] ;
333 -> 335 ;
336 [label="gini = 0.423\nsamples = 23\nvalue = [16, 7]"] ;
328 -> 336 ;
337 [label="X[1] <= 2.5\ngini = 0.18\nsamples = 321\nvalue = [289, 32]"] ;
327 -> 337 ;
338 [label="X[3] <= 1.5\ngini = 0.36\nsamples = 34\nvalue = [26, 8]"] ;
337 -> 338 ;
339 [label="gini = 0.231\nsamples = 15\nvalue = [13, 2]"] ;
338 -> 339 ;
340 [label="gini = 0.432\nsamples = 19\nvalue = [13, 6]"] ;
338 -> 340 ;
341 [label="X[3] <= 1.5\ngini = 0.153\nsamples = 287\nvalue = [263, 24]"] ;
337 -> 341 ;
342 [label="gini = 0.401\nsamples = 18\nvalue = [13, 5]"] ;
341 -> 342 ;
343 [label="X[5] <= 1.5\ngini = 0.131\nsamples = 269\nvalue = [250, 19]"] ;
341 -> 343 ;
344 [label="gini = 0.22\nsamples = 119\nvalue = [104, 15]"] ;
343 -> 344 ;
345 [label="X[4] <= 1.5\ngini = 0.052\nsamples = 150\nvalue = [146, 4]"] ;
343 -> 345 ;
346 [label="gini = 0.219\nsamples = 16\nvalue = [14, 2]"] ;
345 -> 346 ;
347 [label="gini = 0.029\nsamples = 134\nvalue = [132, 2]"] ;
345 -> 347 ;
348 [label="X[5] <= 2.5\ngini = 0.373\nsamples = 157\nvalue = [118, 39]"] ;
322 -> 348 ;
349 [label="X[1] <= 2.5\ngini = 0.21\nsamples = 42\nvalue = [37, 5]"] ;
348 -> 349 ;
350 [label="gini = 0.0\nsamples = 17\nvalue = [17, 0]"] ;
349 -> 350 ;
351 [label="gini = 0.32\nsamples = 25\nvalue = [20, 5]"] ;
349 -> 351 ;
352 [label="X[1] <= 3.5\ngini = 0.416\nsamples = 115\nvalue = [81, 34]"] ;
348 -> 352 ;
353 [label="X[3] <= 1.5\ngini = 0.385\nsamples = 77\nvalue = [57, 20]"] ;
352 -> 353 ;
354 [label="gini = 0.337\nsamples = 28\nvalue = [22, 6]"] ;
353 -> 354 ;
355 [label="X[1] <= 2.5\ngini = 0.408\nsamples = 49\nvalue = [35, 14]"] ;
353 -> 355 ;
356 [label="gini = 0.32\nsamples = 20\nvalue = [16, 4]"] ;
355 -> 356 ;
357 [label="gini = 0.452\nsamples = 29\nvalue = [19, 10]"] ;
355 -> 357 ;
358 [label="X[2] <= 2.5\ngini = 0.465\nsamples = 38\nvalue = [24, 14]"] ;
352 -> 358 ;
359 [label="gini = 0.5\nsamples = 18\nvalue = [9, 9]"] ;
358 -> 359 ;
360 [label="gini = 0.375\nsamples = 20\nvalue = [15, 5]"] ;
358 -> 360 ;
361 [label="X[1] <= 2.5\ngini = 0.404\nsamples = 331\nvalue = [238, 93]"] ;
321 -> 361 ;
362 [label="X[2] <= 2.5\ngini = 0.264\nsamples = 96\nvalue = [81, 15]"] ;
361 -> 362 ;
363 [label="X[4] <= 2.5\ngini = 0.157\nsamples = 35\nvalue = [32, 3]"] ;
362 -> 363 ;
364 [label="gini = 0.208\nsamples = 17\nvalue = [15, 2]"] ;
363 -> 364 ;
365 [label="gini = 0.105\nsamples = 18\nvalue = [17, 1]"] ;
363 -> 365 ;
366 [label="X[5] <= 2.5\ngini = 0.316\nsamples = 61\nvalue = [49, 12]"] ;
362 -> 366 ;
367 [label="gini = 0.227\nsamples = 23\nvalue = [20, 3]"] ;
366 -> 367 ;
368 [label="X[4] <= 1.5\ngini = 0.361\nsamples = 38\nvalue = [29, 9]"] ;
366 -> 368 ;
369 [label="gini = 0.291\nsamples = 17\nvalue = [14, 3]"] ;
368 -> 369 ;
370 [label="gini = 0.408\nsamples = 21\nvalue = [15, 6]"] ;
368 -> 370 ;
371 [label="X[2] <= 1.5\ngini = 0.443\nsamples = 235\nvalue = [157, 78]"] ;
361 -> 371 ;
372 [label="gini = 0.305\nsamples = 32\nvalue = [26, 6]"] ;
371 -> 372 ;
373 [label="X[5] <= 2.5\ngini = 0.458\nsamples = 203\nvalue = [131, 72]"] ;
371 -> 373 ;
374 [label="X[4] <= 2.5\ngini = 0.369\nsamples = 45\nvalue = [34, 11]"] ;
373 -> 374 ;
375 [label="gini = 0.165\nsamples = 22\nvalue = [20, 2]"] ;
374 -> 375 ;
376 [label="gini = 0.476\nsamples = 23\nvalue = [14, 9]"] ;
374 -> 376 ;
377 [label="X[3] <= 3.5\ngini = 0.474\nsamples = 158\nvalue = [97, 61]"] ;
373 -> 377 ;
378 [label="X[2] <= 2.5\ngini = 0.487\nsamples = 119\nvalue = [69, 50]"] ;
377 -> 378 ;
379 [label="X[4] <= 3.5\ngini = 0.44\nsamples = 46\nvalue = [31, 15]"] ;
378 -> 379 ;
380 [label="gini = 0.383\nsamples = 31\nvalue = [23, 8]"] ;
379 -> 380 ;
381 [label="gini = 0.498\nsamples = 15\nvalue = [8, 7]"] ;
379 -> 381 ;
382 [label="X[1] <= 3.5\ngini = 0.499\nsamples = 73\nvalue = [38, 35]"] ;
378 -> 382 ;
383 [label="X[4] <= 2.5\ngini = 0.497\nsamples = 50\nvalue = [23, 27]"] ;
382 -> 383 ;
384 [label="gini = 0.5\nsamples = 26\nvalue = [13, 13]"] ;
383 -> 384 ;
385 [label="gini = 0.486\nsamples = 24\nvalue = [10, 14]"] ;
383 -> 385 ;
386 [label="gini = 0.454\nsamples = 23\nvalue = [15, 8]"] ;
382 -> 386 ;
387 [label="X[1] <= 3.5\ngini = 0.405\nsamples = 39\nvalue = [28, 11]"] ;
377 -> 387 ;
388 [label="gini = 0.34\nsamples = 23\nvalue = [18, 5]"] ;
387 -> 388 ;
389 [label="gini = 0.469\nsamples = 16\nvalue = [10, 6]"] ;
387 -> 389 ;
390 [label="X[1] <= 2.5\ngini = 0.451\nsamples = 399\nvalue = [262, 137]"] ;
320 -> 390 ;
391 [label="X[4] <= 3.5\ngini = 0.369\nsamples = 168\nvalue = [127, 41]"] ;
390 -> 391 ;
392 [label="X[1] <= 1.5\ngini = 0.327\nsamples = 136\nvalue = [108, 28]"] ;
391 -> 392 ;
393 [label="X[3] <= 2.5\ngini = 0.266\nsamples = 57\nvalue = [48, 9]"] ;
392 -> 393 ;
394 [label="gini = 0.346\nsamples = 18\nvalue = [14, 4]"] ;
393 -> 394 ;
395 [label="X[5] <= 2.5\ngini = 0.224\nsamples = 39\nvalue = [34, 5]"] ;
393 -> 395 ;
396 [label="gini = 0.346\nsamples = 18\nvalue = [14, 4]"] ;
395 -> 396 ;
397 [label="gini = 0.091\nsamples = 21\nvalue = [20, 1]"] ;
395 -> 397 ;
398 [label="X[2] <= 4.5\ngini = 0.365\nsamples = 79\nvalue = [60, 19]"] ;
392 -> 398 ;
399 [label="X[4] <= 1.5\ngini = 0.383\nsamples = 62\nvalue = [46, 16]"] ;
398 -> 399 ;
400 [label="gini = 0.4\nsamples = 29\nvalue = [21, 8]"] ;
399 -> 400 ;
401 [label="gini = 0.367\nsamples = 33\nvalue = [25, 8]"] ;
399 -> 401 ;
402 [label="gini = 0.291\nsamples = 17\nvalue = [14, 3]"] ;
398 -> 402 ;
403 [label="gini = 0.482\nsamples = 32\nvalue = [19, 13]"] ;
391 -> 403 ;
404 [label="X[2] <= 4.5\ngini = 0.486\nsamples = 231\nvalue = [135, 96]"] ;
390 -> 404 ;
405 [label="X[4] <= 0.5\ngini = 0.461\nsamples = 172\nvalue = [110, 62]"] ;
404 -> 405 ;
406 [label="X[3] <= 2.5\ngini = 0.5\nsamples = 33\nvalue = [16, 17]"] ;
405 -> 406 ;
407 [label="gini = 0.484\nsamples = 17\nvalue = [7, 10]"] ;
406 -> 407 ;
408 [label="gini = 0.492\nsamples = 16\nvalue = [9, 7]"] ;
406 -> 408 ;
409 [label="X[4] <= 3.5\ngini = 0.438\nsamples = 139\nvalue = [94, 45]"] ;
405 -> 409 ;
410 [label="X[1] <= 3.5\ngini = 0.419\nsamples = 107\nvalue = [75, 32]"] ;
409 -> 410 ;
411 [label="X[3] <= 2.5\ngini = 0.455\nsamples = 63\nvalue = [41, 22]"] ;
410 -> 411 ;
412 [label="gini = 0.426\nsamples = 26\nvalue = [18, 8]"] ;
411 -> 412 ;
413 [label="gini = 0.47\nsamples = 37\nvalue = [23, 14]"] ;
411 -> 413 ;
414 [label="X[3] <= 2.5\ngini = 0.351\nsamples = 44\nvalue = [34, 10]"] ;
410 -> 414 ;
415 [label="gini = 0.444\nsamples = 15\nvalue = [10, 5]"] ;
414 -> 415 ;
416 [label="gini = 0.285\nsamples = 29\nvalue = [24, 5]"] ;
414 -> 416 ;
417 [label="X[1] <= 3.5\ngini = 0.482\nsamples = 32\nvalue = [19, 13]"] ;
409 -> 417 ;
418 [label="gini = 0.43\nsamples = 16\nvalue = [11, 5]"] ;
417 -> 418 ;
419 [label="gini = 0.5\nsamples = 16\nvalue = [8, 8]"] ;
417 -> 419 ;
420 [label="X[3] <= 2.5\ngini = 0.488\nsamples = 59\nvalue = [25, 34]"] ;
404 -> 420 ;
421 [label="gini = 0.499\nsamples = 23\nvalue = [12, 11]"] ;
420 -> 421 ;
422 [label="X[4] <= 1.5\ngini = 0.461\nsamples = 36\nvalue = [13, 23]"] ;
420 -> 422 ;
423 [label="gini = 0.391\nsamples = 15\nvalue = [4, 11]"] ;
422 -> 423 ;
424 [label="gini = 0.49\nsamples = 21\nvalue = [9, 12]"] ;
422 -> 424 ;
425 [label="X[2] <= 2.5\ngini = 0.491\nsamples = 677\nvalue = [294, 383]"] ;
319 -> 425 ;
426 [label="X[3] <= 1.5\ngini = 0.454\nsamples = 135\nvalue = [88, 47]"] ;
425 -> 426 ;
427 [label="X[4] <= 1.5\ngini = 0.496\nsamples = 46\nvalue = [25, 21]"] ;
426 -> 427 ;
428 [label="gini = 0.48\nsamples = 20\nvalue = [8, 12]"] ;
427 -> 428 ;
429 [label="gini = 0.453\nsamples = 26\nvalue = [17, 9]"] ;
427 -> 429 ;
430 [label="X[5] <= 4.5\ngini = 0.414\nsamples = 89\nvalue = [63, 26]"] ;
426 -> 430 ;
431 [label="X[4] <= 3.5\ngini = 0.363\nsamples = 63\nvalue = [48, 15]"] ;
430 -> 431 ;
432 [label="X[4] <= 2.5\ngini = 0.245\nsamples = 42\nvalue = [36, 6]"] ;
431 -> 432 ;
433 [label="gini = 0.159\nsamples = 23\nvalue = [21, 2]"] ;
432 -> 433 ;
434 [label="gini = 0.332\nsamples = 19\nvalue = [15, 4]"] ;
432 -> 434 ;
435 [label="gini = 0.49\nsamples = 21\nvalue = [12, 9]"] ;
431 -> 435 ;
436 [label="gini = 0.488\nsamples = 26\nvalue = [15, 11]"] ;
430 -> 436 ;
437 [label="X[2] <= 4.5\ngini = 0.471\nsamples = 542\nvalue = [206, 336]"] ;
425 -> 437 ;
438 [label="X[4] <= 2.5\ngini = 0.484\nsamples = 467\nvalue = [192, 275]"] ;
437 -> 438 ;
439 [label="X[1] <= 1.5\ngini = 0.474\nsamples = 348\nvalue = [134, 214]"] ;
438 -> 439 ;
440 [label="gini = 0.475\nsamples = 18\nvalue = [11, 7]"] ;
439 -> 440 ;
441 [label="X[3] <= 0.5\ngini = 0.468\nsamples = 330\nvalue = [123, 207]"] ;
439 -> 441 ;
442 [label="gini = 0.32\nsamples = 25\nvalue = [5, 20]"] ;
441 -> 442 ;
443 [label="X[2] <= 3.5\ngini = 0.474\nsamples = 305\nvalue = [118, 187]"] ;
441 -> 443 ;
444 [label="X[1] <= 2.5\ngini = 0.482\nsamples = 250\nvalue = [101, 149]"] ;
443 -> 444 ;
445 [label="gini = 0.488\nsamples = 19\nvalue = [11, 8]"] ;
444 -> 445 ;
446 [label="X[3] <= 2.5\ngini = 0.476\nsamples = 231\nvalue = [90, 141]"] ;
444 -> 446 ;
447 [label="gini = 0.467\nsamples = 188\nvalue = [70, 118]"] ;
446 -> 447 ;
448 [label="X[1] <= 3.5\ngini = 0.498\nsamples = 43\nvalue = [20, 23]"] ;
446 -> 448 ;
449 [label="gini = 0.486\nsamples = 24\nvalue = [14, 10]"] ;
448 -> 449 ;
450 [label="gini = 0.432\nsamples = 19\nvalue = [6, 13]"] ;
448 -> 450 ;
451 [label="X[1] <= 3.5\ngini = 0.427\nsamples = 55\nvalue = [17, 38]"] ;
443 -> 451 ;
452 [label="gini = 0.353\nsamples = 35\nvalue = [8, 27]"] ;
451 -> 452 ;
453 [label="gini = 0.495\nsamples = 20\nvalue = [9, 11]"] ;
451 -> 453 ;
454 [label="X[3] <= 1.5\ngini = 0.5\nsamples = 119\nvalue = [58, 61]"] ;
438 -> 454 ;
455 [label="gini = 0.391\nsamples = 15\nvalue = [11, 4]"] ;
454 -> 455 ;
456 [label="X[1] <= 2.5\ngini = 0.495\nsamples = 104\nvalue = [47, 57]"] ;
454 -> 456 ;
457 [label="gini = 0.434\nsamples = 22\nvalue = [7, 15]"] ;
456 -> 457 ;
458 [label="X[2] <= 3.5\ngini = 0.5\nsamples = 82\nvalue = [40, 42]"] ;
456 -> 458 ;
459 [label="X[1] <= 3.5\ngini = 0.495\nsamples = 49\nvalue = [27, 22]"] ;
458 -> 459 ;
460 [label="gini = 0.469\nsamples = 24\nvalue = [15, 9]"] ;
459 -> 460 ;
461 [label="gini = 0.499\nsamples = 25\nvalue = [12, 13]"] ;
459 -> 461 ;
462 [label="X[4] <= 3.5\ngini = 0.478\nsamples = 33\nvalue = [13, 20]"] ;
458 -> 462 ;
463 [label="gini = 0.494\nsamples = 18\nvalue = [8, 10]"] ;
462 -> 463 ;
464 [label="gini = 0.444\nsamples = 15\nvalue = [5, 10]"] ;
462 -> 464 ;
465 [label="X[4] <= 1.5\ngini = 0.304\nsamples = 75\nvalue = [14, 61]"] ;
437 -> 465 ;
466 [label="gini = 0.454\nsamples = 23\nvalue = [8, 15]"] ;
465 -> 466 ;
467 [label="X[1] <= 3.5\ngini = 0.204\nsamples = 52\nvalue = [6, 46]"] ;
465 -> 467 ;
468 [label="gini = 0.33\nsamples = 24\nvalue = [5, 19]"] ;
467 -> 468 ;
469 [label="gini = 0.069\nsamples = 28\nvalue = [1, 27]"] ;
467 -> 469 ;
470 [label="X[0] <= 6.5\ngini = 0.082\nsamples = 17362\nvalue = [741, 16621]"] ;
0 -> 470 [labeldistance=2.5, labelangle=-45, headlabel="False"] ;
471 [label="X[5] <= 3.5\ngini = 0.433\nsamples = 1464\nvalue = [464, 1000]"] ;
470 -> 471 ;
472 [label="X[5] <= 2.5\ngini = 0.493\nsamples = 725\nvalue = [319, 406]"] ;
471 -> 472 ;
473 [label="X[3] <= 2.5\ngini = 0.483\nsamples = 186\nvalue = [110, 76]"] ;
472 -> 473 ;
474 [label="X[5] <= 1.5\ngini = 0.415\nsamples = 51\nvalue = [36, 15]"] ;
473 -> 474 ;
475 [label="gini = 0.499\nsamples = 21\nvalue = [10, 11]"] ;
474 -> 475 ;
476 [label="X[4] <= 2.5\ngini = 0.231\nsamples = 30\nvalue = [26, 4]"] ;
474 -> 476 ;
477 [label="gini = 0.231\nsamples = 15\nvalue = [13, 2]"] ;
476 -> 477 ;
478 [label="gini = 0.231\nsamples = 15\nvalue = [13, 2]"] ;
476 -> 478 ;
479 [label="X[2] <= 3.5\ngini = 0.495\nsamples = 135\nvalue = [74, 61]"] ;
473 -> 479 ;
480 [label="X[5] <= 1.5\ngini = 0.485\nsamples = 99\nvalue = [58, 41]"] ;
479 -> 480 ;
481 [label="gini = 0.482\nsamples = 79\nvalue = [47, 32]"] ;
480 -> 481 ;
482 [label="gini = 0.495\nsamples = 20\nvalue = [11, 9]"] ;
480 -> 482 ;
483 [label="X[2] <= 4.5\ngini = 0.494\nsamples = 36\nvalue = [16, 20]"] ;
479 -> 483 ;
484 [label="gini = 0.472\nsamples = 21\nvalue = [8, 13]"] ;
483 -> 484 ;
485 [label="gini = 0.498\nsamples = 15\nvalue = [8, 7]"] ;
483 -> 485 ;
486 [label="X[2] <= 3.5\ngini = 0.475\nsamples = 539\nvalue = [209, 330]"] ;
472 -> 486 ;
487 [label="X[1] <= 2.5\ngini = 0.495\nsamples = 265\nvalue = [119, 146]"] ;
486 -> 487 ;
488 [label="X[4] <= 2.5\ngini = 0.48\nsamples = 60\nvalue = [36, 24]"] ;
487 -> 488 ;
489 [label="X[4] <= 1.5\ngini = 0.432\nsamples = 38\nvalue = [26, 12]"] ;
488 -> 489 ;
490 [label="gini = 0.408\nsamples = 21\nvalue = [15, 6]"] ;
489 -> 490 ;
491 [label="gini = 0.457\nsamples = 17\nvalue = [11, 6]"] ;
489 -> 491 ;
492 [label="gini = 0.496\nsamples = 22\nvalue = [10, 12]"] ;
488 -> 492 ;
493 [label="X[4] <= 0.5\ngini = 0.482\nsamples = 205\nvalue = [83, 122]"] ;
487 -> 493 ;
494 [label="gini = 0.308\nsamples = 21\nvalue = [4, 17]"] ;
493 -> 494 ;
495 [label="X[3] <= 3.5\ngini = 0.49\nsamples = 184\nvalue = [79, 105]"] ;
493 -> 495 ;
496 [label="X[4] <= 2.5\ngini = 0.498\nsamples = 141\nvalue = [66, 75]"] ;
495 -> 496 ;
497 [label="X[4] <= 1.5\ngini = 0.496\nsamples = 68\nvalue = [37, 31]"] ;
496 -> 497 ;
498 [label="gini = 0.469\nsamples = 24\nvalue = [9, 15]"] ;
497 -> 498 ;
499 [label="X[3] <= 2.5\ngini = 0.463\nsamples = 44\nvalue = [28, 16]"] ;
497 -> 499 ;
500 [label="gini = 0.48\nsamples = 15\nvalue = [9, 6]"] ;
499 -> 500 ;
501 [label="gini = 0.452\nsamples = 29\nvalue = [19, 10]"] ;
499 -> 501 ;
502 [label="X[1] <= 3.5\ngini = 0.479\nsamples = 73\nvalue = [29, 44]"] ;
496 -> 502 ;
503 [label="X[4] <= 3.5\ngini = 0.484\nsamples = 34\nvalue = [14, 20]"] ;
502 -> 503 ;
504 [label="gini = 0.465\nsamples = 19\nvalue = [7, 12]"] ;
503 -> 504 ;
505 [label="gini = 0.498\nsamples = 15\nvalue = [7, 8]"] ;
503 -> 505 ;
506 [label="X[4] <= 3.5\ngini = 0.473\nsamples = 39\nvalue = [15, 24]"] ;
502 -> 506 ;
507 [label="gini = 0.488\nsamples = 19\nvalue = [8, 11]"] ;
506 -> 507 ;
508 [label="gini = 0.455\nsamples = 20\nvalue = [7, 13]"] ;
506 -> 508 ;
509 [label="X[4] <= 2.5\ngini = 0.422\nsamples = 43\nvalue = [13, 30]"] ;
495 -> 509 ;
510 [label="gini = 0.32\nsamples = 15\nvalue = [3, 12]"] ;
509 -> 510 ;
511 [label="gini = 0.459\nsamples = 28\nvalue = [10, 18]"] ;
509 -> 511 ;
512 [label="X[4] <= 4.5\ngini = 0.441\nsamples = 274\nvalue = [90, 184]"] ;
486 -> 512 ;
513 [label="X[4] <= 0.5\ngini = 0.451\nsamples = 256\nvalue = [88, 168]"] ;
512 -> 513 ;
514 [label="X[3] <= 2.5\ngini = 0.375\nsamples = 40\nvalue = [10, 30]"] ;
513 -> 514 ;
515 [label="gini = 0.375\nsamples = 20\nvalue = [5, 15]"] ;
514 -> 515 ;
516 [label="gini = 0.375\nsamples = 20\nvalue = [5, 15]"] ;
514 -> 516 ;
517 [label="X[1] <= 3.5\ngini = 0.461\nsamples = 216\nvalue = [78, 138]"] ;
513 -> 517 ;
518 [label="X[4] <= 2.5\ngini = 0.444\nsamples = 177\nvalue = [59, 118]"] ;
517 -> 518 ;
519 [label="X[2] <= 4.5\ngini = 0.478\nsamples = 96\nvalue = [38, 58]"] ;
518 -> 519 ;
520 [label="X[3] <= 3.5\ngini = 0.459\nsamples = 70\nvalue = [25, 45]"] ;
519 -> 520 ;
521 [label="X[3] <= 2.5\ngini = 0.475\nsamples = 54\nvalue = [21, 33]"] ;
520 -> 521 ;
522 [label="gini = 0.428\nsamples = 29\nvalue = [9, 20]"] ;
521 -> 522 ;
523 [label="gini = 0.499\nsamples = 25\nvalue = [12, 13]"] ;
521 -> 523 ;
524 [label="gini = 0.375\nsamples = 16\nvalue = [4, 12]"] ;
520 -> 524 ;
525 [label="gini = 0.5\nsamples = 26\nvalue = [13, 13]"] ;
519 -> 525 ;
526 [label="X[2] <= 4.5\ngini = 0.384\nsamples = 81\nvalue = [21, 60]"] ;
518 -> 526 ;
527 [label="X[4] <= 3.5\ngini = 0.428\nsamples = 58\nvalue = [18, 40]"] ;
526 -> 527 ;
528 [label="X[1] <= 2.5\ngini = 0.463\nsamples = 33\nvalue = [12, 21]"] ;
527 -> 528 ;
529 [label="gini = 0.444\nsamples = 18\nvalue = [6, 12]"] ;
528 -> 529 ;
530 [label="gini = 0.48\nsamples = 15\nvalue = [6, 9]"] ;
528 -> 530 ;
531 [label="gini = 0.365\nsamples = 25\nvalue = [6, 19]"] ;
527 -> 531 ;
532 [label="gini = 0.227\nsamples = 23\nvalue = [3, 20]"] ;
526 -> 532 ;
533 [label="X[3] <= 2.5\ngini = 0.5\nsamples = 39\nvalue = [19, 20]"] ;
517 -> 533 ;
534 [label="gini = 0.498\nsamples = 15\nvalue = [8, 7]"] ;
533 -> 534 ;
535 [label="gini = 0.497\nsamples = 24\nvalue = [11, 13]"] ;
533 -> 535 ;
536 [label="gini = 0.198\nsamples = 18\nvalue = [2, 16]"] ;
512 -> 536 ;
537 [label="X[3] <= 2.5\ngini = 0.315\nsamples = 739\nvalue = [145, 594]"] ;
471 -> 537 ;
538 [label="X[4] <= 0.5\ngini = 0.464\nsamples = 142\nvalue = [52, 90]"] ;
537 -> 538 ;
539 [label="gini = 0.26\nsamples = 26\nvalue = [4, 22]"] ;
538 -> 539 ;
540 [label="X[5] <= 4.5\ngini = 0.485\nsamples = 116\nvalue = [48, 68]"] ;
538 -> 540 ;
541 [label="X[3] <= 1.5\ngini = 0.496\nsamples = 95\nvalue = [43, 52]"] ;
540 -> 541 ;
542 [label="X[1] <= 3.5\ngini = 0.493\nsamples = 43\nvalue = [24, 19]"] ;
541 -> 542 ;
543 [label="gini = 0.363\nsamples = 21\nvalue = [16, 5]"] ;
542 -> 543 ;
544 [label="gini = 0.463\nsamples = 22\nvalue = [8, 14]"] ;
542 -> 544 ;
545 [label="X[4] <= 3.5\ngini = 0.464\nsamples = 52\nvalue = [19, 33]"] ;
541 -> 545 ;
546 [label="X[2] <= 3.5\ngini = 0.456\nsamples = 37\nvalue = [13, 24]"] ;
545 -> 546 ;
547 [label="gini = 0.434\nsamples = 22\nvalue = [7, 15]"] ;
546 -> 547 ;
548 [label="gini = 0.48\nsamples = 15\nvalue = [6, 9]"] ;
546 -> 548 ;
549 [label="gini = 0.48\nsamples = 15\nvalue = [6, 9]"] ;
545 -> 549 ;
550 [label="gini = 0.363\nsamples = 21\nvalue = [5, 16]"] ;
540 -> 550 ;
551 [label="X[1] <= 1.5\ngini = 0.263\nsamples = 597\nvalue = [93, 504]"] ;
537 -> 551 ;
552 [label="gini = 0.49\nsamples = 21\nvalue = [9, 12]"] ;
551 -> 552 ;
553 [label="X[2] <= 2.5\ngini = 0.249\nsamples = 576\nvalue = [84, 492]"] ;
551 -> 553 ;
554 [label="X[4] <= 2.5\ngini = 0.411\nsamples = 45\nvalue = [13, 32]"] ;
553 -> 554 ;
555 [label="gini = 0.291\nsamples = 17\nvalue = [3, 14]"] ;
554 -> 555 ;
556 [label="gini = 0.459\nsamples = 28\nvalue = [10, 18]"] ;
554 -> 556 ;
557 [label="X[5] <= 4.5\ngini = 0.232\nsamples = 531\nvalue = [71, 460]"] ;
553 -> 557 ;
558 [label="X[3] <= 4.5\ngini = 0.251\nsamples = 456\nvalue = [67, 389]"] ;
557 -> 558 ;
559 [label="X[4] <= 2.5\ngini = 0.234\nsamples = 436\nvalue = [59, 377]"] ;
558 -> 559 ;
560 [label="X[2] <= 3.5\ngini = 0.206\nsamples = 300\nvalue = [35, 265]"] ;
559 -> 560 ;
561 [label="X[4] <= 1.5\ngini = 0.22\nsamples = 231\nvalue = [29, 202]"] ;
560 -> 561 ;
562 [label="gini = 0.236\nsamples = 22\nvalue = [3, 19]"] ;
561 -> 562 ;
563 [label="gini = 0.218\nsamples = 209\nvalue = [26, 183]"] ;
561 -> 563 ;
564 [label="X[1] <= 3.5\ngini = 0.159\nsamples = 69\nvalue = [6, 63]"] ;
560 -> 564 ;
565 [label="X[4] <= 1.5\ngini = 0.051\nsamples = 38\nvalue = [1, 37]"] ;
564 -> 565 ;
566 [label="gini = 0.0\nsamples = 19\nvalue = [0, 19]"] ;
565 -> 566 ;
567 [label="gini = 0.1\nsamples = 19\nvalue = [1, 18]"] ;
565 -> 567 ;
568 [label="gini = 0.271\nsamples = 31\nvalue = [5, 26]"] ;
564 -> 568 ;
569 [label="X[1] <= 2.5\ngini = 0.291\nsamples = 136\nvalue = [24, 112]"] ;
559 -> 569 ;
570 [label="gini = 0.408\nsamples = 21\nvalue = [6, 15]"] ;
569 -> 570 ;
571 [label="X[2] <= 3.5\ngini = 0.264\nsamples = 115\nvalue = [18, 97]"] ;
569 -> 571 ;
572 [label="X[4] <= 3.5\ngini = 0.3\nsamples = 49\nvalue = [9, 40]"] ;
571 -> 572 ;
573 [label="gini = 0.245\nsamples = 28\nvalue = [4, 24]"] ;
572 -> 573 ;
574 [label="gini = 0.363\nsamples = 21\nvalue = [5, 16]"] ;
572 -> 574 ;
575 [label="X[4] <= 3.5\ngini = 0.236\nsamples = 66\nvalue = [9, 57]"] ;
571 -> 575 ;
576 [label="X[3] <= 3.5\ngini = 0.295\nsamples = 39\nvalue = [7, 32]"] ;
575 -> 576 ;
577 [label="gini = 0.236\nsamples = 22\nvalue = [3, 19]"] ;
576 -> 577 ;
578 [label="gini = 0.36\nsamples = 17\nvalue = [4, 13]"] ;
576 -> 578 ;
579 [label="gini = 0.137\nsamples = 27\nvalue = [2, 25]"] ;
575 -> 579 ;
580 [label="gini = 0.48\nsamples = 20\nvalue = [8, 12]"] ;
558 -> 580 ;
581 [label="X[2] <= 3.5\ngini = 0.101\nsamples = 75\nvalue = [4, 71]"] ;
557 -> 581 ;
582 [label="gini = 0.219\nsamples = 24\nvalue = [3, 21]"] ;
581 -> 582 ;
583 [label="X[1] <= 3.5\ngini = 0.038\nsamples = 51\nvalue = [1, 50]"] ;
581 -> 583 ;
584 [label="gini = 0.0\nsamples = 29\nvalue = [0, 29]"] ;
583 -> 584 ;
585 [label="gini = 0.087\nsamples = 22\nvalue = [1, 21]"] ;
583 -> 585 ;
586 [label="X[0] <= 7.5\ngini = 0.034\nsamples = 15898\nvalue = [277, 15621]"] ;
470 -> 586 ;
587 [label="X[5] <= 3.5\ngini = 0.116\nsamples = 2665\nvalue = [164, 2501]"] ;
586 -> 587 ;
588 [label="X[5] <= 2.5\ngini = 0.254\nsamples = 635\nvalue = [95, 540]"] ;
587 -> 588 ;
589 [label="X[3] <= 0.5\ngini = 0.387\nsamples = 122\nvalue = [32, 90]"] ;
588 -> 589 ;
590 [label="gini = 0.0\nsamples = 22\nvalue = [0, 22]"] ;
589 -> 590 ;
591 [label="X[5] <= 1.5\ngini = 0.435\nsamples = 100\nvalue = [32, 68]"] ;
589 -> 591 ;
592 [label="gini = 0.404\nsamples = 64\nvalue = [18, 46]"] ;
591 -> 592 ;
593 [label="X[1] <= 3.5\ngini = 0.475\nsamples = 36\nvalue = [14, 22]"] ;
591 -> 593 ;
594 [label="gini = 0.5\nsamples = 20\nvalue = [10, 10]"] ;
593 -> 594 ;
595 [label="gini = 0.375\nsamples = 16\nvalue = [4, 12]"] ;
593 -> 595 ;
596 [label="X[2] <= 3.5\ngini = 0.215\nsamples = 513\nvalue = [63, 450]"] ;
588 -> 596 ;
597 [label="X[3] <= 1.5\ngini = 0.285\nsamples = 157\nvalue = [27, 130]"] ;
596 -> 597 ;
598 [label="gini = 0.077\nsamples = 25\nvalue = [1, 24]"] ;
597 -> 598 ;
599 [label="X[1] <= 2.5\ngini = 0.316\nsamples = 132\nvalue = [26, 106]"] ;
597 -> 599 ;
600 [label="gini = 0.444\nsamples = 15\nvalue = [5, 10]"] ;
599 -> 600 ;
601 [label="X[1] <= 3.5\ngini = 0.295\nsamples = 117\nvalue = [21, 96]"] ;
599 -> 601 ;
602 [label="X[4] <= 2.5\ngini = 0.228\nsamples = 61\nvalue = [8, 53]"] ;
601 -> 602 ;
603 [label="gini = 0.308\nsamples = 21\nvalue = [4, 17]"] ;
602 -> 603 ;
604 [label="X[4] <= 3.5\ngini = 0.18\nsamples = 40\nvalue = [4, 36]"] ;
602 -> 604 ;
605 [label="gini = 0.172\nsamples = 21\nvalue = [2, 19]"] ;
604 -> 605 ;
606 [label="gini = 0.188\nsamples = 19\nvalue = [2, 17]"] ;
604 -> 606 ;
607 [label="X[4] <= 3.5\ngini = 0.357\nsamples = 56\nvalue = [13, 43]"] ;
601 -> 607 ;
608 [label="X[4] <= 2.5\ngini = 0.391\nsamples = 30\nvalue = [8, 22]"] ;
607 -> 608 ;
609 [label="gini = 0.391\nsamples = 15\nvalue = [4, 11]"] ;
608 -> 609 ;
610 [label="gini = 0.391\nsamples = 15\nvalue = [4, 11]"] ;
608 -> 610 ;
611 [label="gini = 0.311\nsamples = 26\nvalue = [5, 21]"] ;
607 -> 611 ;
612 [label="X[1] <= 2.5\ngini = 0.182\nsamples = 356\nvalue = [36, 320]"] ;
596 -> 612 ;
613 [label="X[4] <= 2.5\ngini = 0.282\nsamples = 59\nvalue = [10, 49]"] ;
612 -> 613 ;
614 [label="gini = 0.375\nsamples = 20\nvalue = [5, 15]"] ;
613 -> 614 ;
615 [label="X[2] <= 4.5\ngini = 0.224\nsamples = 39\nvalue = [5, 34]"] ;
613 -> 615 ;
616 [label="gini = 0.255\nsamples = 20\nvalue = [3, 17]"] ;
615 -> 616 ;
617 [label="gini = 0.188\nsamples = 19\nvalue = [2, 17]"] ;
615 -> 617 ;
618 [label="X[2] <= 4.5\ngini = 0.16\nsamples = 297\nvalue = [26, 271]"] ;
612 -> 618 ;
619 [label="X[4] <= 0.5\ngini = 0.131\nsamples = 212\nvalue = [15, 197]"] ;
618 -> 619 ;
620 [label="X[1] <= 3.5\ngini = 0.215\nsamples = 49\nvalue = [6, 43]"] ;
619 -> 620 ;
621 [label="gini = 0.219\nsamples = 24\nvalue = [3, 21]"] ;
620 -> 621 ;
622 [label="gini = 0.211\nsamples = 25\nvalue = [3, 22]"] ;
620 -> 622 ;
623 [label="X[1] <= 3.5\ngini = 0.104\nsamples = 163\nvalue = [9, 154]"] ;
619 -> 623 ;
624 [label="X[4] <= 2.5\ngini = 0.081\nsamples = 95\nvalue = [4, 91]"] ;
623 -> 624 ;
625 [label="X[4] <= 1.5\ngini = 0.161\nsamples = 34\nvalue = [3, 31]"] ;
624 -> 625 ;
626 [label="gini = 0.124\nsamples = 15\nvalue = [1, 14]"] ;
625 -> 626 ;
627 [label="gini = 0.188\nsamples = 19\nvalue = [2, 17]"] ;
625 -> 627 ;
628 [label="X[4] <= 3.5\ngini = 0.032\nsamples = 61\nvalue = [1, 60]"] ;
624 -> 628 ;
629 [label="gini = 0.0\nsamples = 35\nvalue = [0, 35]"] ;
628 -> 629 ;
630 [label="gini = 0.074\nsamples = 26\nvalue = [1, 25]"] ;
628 -> 630 ;
631 [label="X[3] <= 3.5\ngini = 0.136\nsamples = 68\nvalue = [5, 63]"] ;
623 -> 631 ;
632 [label="X[4] <= 2.5\ngini = 0.087\nsamples = 44\nvalue = [2, 42]"] ;
631 -> 632 ;
633 [label="gini = 0.0\nsamples = 17\nvalue = [0, 17]"] ;
632 -> 633 ;
634 [label="gini = 0.137\nsamples = 27\nvalue = [2, 25]"] ;
632 -> 634 ;
635 [label="gini = 0.219\nsamples = 24\nvalue = [3, 21]"] ;
631 -> 635 ;
636 [label="X[1] <= 3.5\ngini = 0.225\nsamples = 85\nvalue = [11, 74]"] ;
618 -> 636 ;
637 [label="X[4] <= 2.5\ngini = 0.172\nsamples = 42\nvalue = [4, 38]"] ;
636 -> 637 ;
638 [label="gini = 0.105\nsamples = 18\nvalue = [1, 17]"] ;
637 -> 638 ;
639 [label="gini = 0.219\nsamples = 24\nvalue = [3, 21]"] ;
637 -> 639 ;
640 [label="X[4] <= 3.5\ngini = 0.273\nsamples = 43\nvalue = [7, 36]"] ;
636 -> 640 ;
641 [label="gini = 0.311\nsamples = 26\nvalue = [5, 21]"] ;
640 -> 641 ;
642 [label="gini = 0.208\nsamples = 17\nvalue = [2, 15]"] ;
640 -> 642 ;
643 [label="X[1] <= 2.5\ngini = 0.066\nsamples = 2030\nvalue = [69, 1961]"] ;
587 -> 643 ;
644 [label="X[3] <= 3.5\ngini = 0.15\nsamples = 147\nvalue = [12, 135]"] ;
643 -> 644 ;
645 [label="X[2] <= 3.5\ngini = 0.098\nsamples = 77\nvalue = [4, 73]"] ;
644 -> 645 ;
646 [label="gini = 0.204\nsamples = 26\nvalue = [3, 23]"] ;
645 -> 646 ;
647 [label="X[2] <= 4.5\ngini = 0.038\nsamples = 51\nvalue = [1, 50]"] ;
645 -> 647 ;
648 [label="gini = 0.0\nsamples = 34\nvalue = [0, 34]"] ;
647 -> 648 ;
649 [label="gini = 0.111\nsamples = 17\nvalue = [1, 16]"] ;
647 -> 649 ;
650 [label="X[3] <= 4.5\ngini = 0.202\nsamples = 70\nvalue = [8, 62]"] ;
644 -> 650 ;
651 [label="X[4] <= 3.5\ngini = 0.237\nsamples = 51\nvalue = [7, 44]"] ;
650 -> 651 ;
652 [label="X[4] <= 2.5\ngini = 0.278\nsamples = 36\nvalue = [6, 30]"] ;
651 -> 652 ;
653 [label="gini = 0.278\nsamples = 18\nvalue = [3, 15]"] ;
652 -> 653 ;
654 [label="gini = 0.278\nsamples = 18\nvalue = [3, 15]"] ;
652 -> 654 ;
655 [label="gini = 0.124\nsamples = 15\nvalue = [1, 14]"] ;
651 -> 655 ;
656 [label="gini = 0.1\nsamples = 19\nvalue = [1, 18]"] ;
650 -> 656 ;
657 [label="X[2] <= 2.5\ngini = 0.059\nsamples = 1883\nvalue = [57, 1826]"] ;
643 -> 657 ;
658 [label="X[4] <= 2.5\ngini = 0.14\nsamples = 53\nvalue = [4, 49]"] ;
657 -> 658 ;
659 [label="gini = 0.0\nsamples = 15\nvalue = [0, 15]"] ;
658 -> 659 ;
660 [label="gini = 0.188\nsamples = 38\nvalue = [4, 34]"] ;
658 -> 660 ;
661 [label="X[5] <= 4.5\ngini = 0.056\nsamples = 1830\nvalue = [53, 1777]"] ;
657 -> 661 ;
662 [label="X[2] <= 3.5\ngini = 0.062\nsamples = 1461\nvalue = [47, 1414]"] ;
661 -> 662 ;
663 [label="X[3] <= 2.5\ngini = 0.039\nsamples = 251\nvalue = [5, 246]"] ;
662 -> 663 ;
664 [label="gini = 0.0\nsamples = 49\nvalue = [0, 49]"] ;
663 -> 664 ;
665 [label="X[4] <= 0.5\ngini = 0.048\nsamples = 202\nvalue = [5, 197]"] ;
663 -> 665 ;
666 [label="gini = 0.124\nsamples = 15\nvalue = [1, 14]"] ;
665 -> 666 ;
667 [label="X[4] <= 4.5\ngini = 0.042\nsamples = 187\nvalue = [4, 183]"] ;
665 -> 667 ;
668 [label="X[3] <= 3.5\ngini = 0.035\nsamples = 166\nvalue = [3, 163]"] ;
667 -> 668 ;
669 [label="X[1] <= 3.5\ngini = 0.062\nsamples = 94\nvalue = [3, 91]"] ;
668 -> 669 ;
670 [label="X[4] <= 3.5\ngini = 0.046\nsamples = 42\nvalue = [1, 41]"] ;
669 -> 670 ;
671 [label="gini = 0.0\nsamples = 27\nvalue = [0, 27]"] ;
670 -> 671 ;
672 [label="gini = 0.124\nsamples = 15\nvalue = [1, 14]"] ;
670 -> 672 ;
673 [label="X[4] <= 2.5\ngini = 0.074\nsamples = 52\nvalue = [2, 50]"] ;
669 -> 673 ;
674 [label="gini = 0.091\nsamples = 21\nvalue = [1, 20]"] ;
673 -> 674 ;
675 [label="gini = 0.062\nsamples = 31\nvalue = [1, 30]"] ;
673 -> 675 ;
676 [label="gini = 0.0\nsamples = 72\nvalue = [0, 72]"] ;
668 -> 676 ;
677 [label="gini = 0.091\nsamples = 21\nvalue = [1, 20]"] ;
667 -> 677 ;
678 [label="X[4] <= 0.5\ngini = 0.067\nsamples = 1210\nvalue = [42, 1168]"] ;
662 -> 678 ;
679 [label="X[2] <= 4.5\ngini = 0.02\nsamples = 99\nvalue = [1, 98]"] ;
678 -> 679 ;
680 [label="gini = 0.0\nsamples = 82\nvalue = [0, 82]"] ;
679 -> 680 ;
681 [label="gini = 0.111\nsamples = 17\nvalue = [1, 16]"] ;
679 -> 681 ;
682 [label="X[1] <= 4.5\ngini = 0.071\nsamples = 1111\nvalue = [41, 1070]"] ;
678 -> 682 ;
683 [label="X[1] <= 3.5\ngini = 0.068\nsamples = 1047\nvalue = [37, 1010]"] ;
682 -> 683 ;
684 [label="X[4] <= 3.5\ngini = 0.078\nsamples = 739\nvalue = [30, 709]"] ;
683 -> 684 ;
685 [label="X[3] <= 2.5\ngini = 0.084\nsamples = 664\nvalue = [29, 635]"] ;
684 -> 685 ;
686 [label="gini = 0.0\nsamples = 17\nvalue = [0, 17]"] ;
685 -> 686 ;
687 [label="X[4] <= 1.5\ngini = 0.086\nsamples = 647\nvalue = [29, 618]"] ;
685 -> 687 ;
688 [label="gini = 0.153\nsamples = 24\nvalue = [2, 22]"] ;
687 -> 688 ;
689 [label="X[2] <= 4.5\ngini = 0.083\nsamples = 623\nvalue = [27, 596]"] ;
687 -> 689 ;
690 [label="X[3] <= 3.5\ngini = 0.084\nsamples = 590\nvalue = [26, 564]"] ;
689 -> 690 ;
691 [label="gini = 0.086\nsamples = 553\nvalue = [25, 528]"] ;
690 -> 691 ;
692 [label="gini = 0.053\nsamples = 37\nvalue = [1, 36]"] ;
690 -> 692 ;
693 [label="gini = 0.059\nsamples = 33\nvalue = [1, 32]"] ;
689 -> 693 ;
694 [label="X[2] <= 4.5\ngini = 0.026\nsamples = 75\nvalue = [1, 74]"] ;
684 -> 694 ;
695 [label="gini = 0.0\nsamples = 51\nvalue = [0, 51]"] ;
694 -> 695 ;
696 [label="gini = 0.08\nsamples = 24\nvalue = [1, 23]"] ;
694 -> 696 ;
697 [label="X[3] <= 3.5\ngini = 0.044\nsamples = 308\nvalue = [7, 301]"] ;
683 -> 697 ;
698 [label="X[2] <= 4.5\ngini = 0.027\nsamples = 146\nvalue = [2, 144]"] ;
697 -> 698 ;
699 [label="gini = 0.0\nsamples = 108\nvalue = [0, 108]"] ;
698 -> 699 ;
700 [label="gini = 0.1\nsamples = 38\nvalue = [2, 36]"] ;
698 -> 700 ;
701 [label="X[2] <= 4.5\ngini = 0.06\nsamples = 162\nvalue = [5, 157]"] ;
697 -> 701 ;
702 [label="X[4] <= 3.5\ngini = 0.082\nsamples = 116\nvalue = [5, 111]"] ;
701 -> 702 ;
703 [label="X[4] <= 2.5\ngini = 0.038\nsamples = 52\nvalue = [1, 51]"] ;
702 -> 703 ;
704 [label="gini = 0.071\nsamples = 27\nvalue = [1, 26]"] ;
703 -> 704 ;
705 [label="gini = 0.0\nsamples = 25\nvalue = [0, 25]"] ;
703 -> 705 ;
706 [label="gini = 0.117\nsamples = 64\nvalue = [4, 60]"] ;
702 -> 706 ;
707 [label="gini = 0.0\nsamples = 46\nvalue = [0, 46]"] ;
701 -> 707 ;
708 [label="X[4] <= 3.5\ngini = 0.117\nsamples = 64\nvalue = [4, 60]"] ;
682 -> 708 ;
709 [label="X[4] <= 2.5\ngini = 0.153\nsamples = 36\nvalue = [3, 33]"] ;
708 -> 709 ;
710 [label="gini = 0.1\nsamples = 19\nvalue = [1, 18]"] ;
709 -> 710 ;
711 [label="gini = 0.208\nsamples = 17\nvalue = [2, 15]"] ;
709 -> 711 ;
712 [label="gini = 0.069\nsamples = 28\nvalue = [1, 27]"] ;
708 -> 712 ;
713 [label="X[4] <= 3.5\ngini = 0.032\nsamples = 369\nvalue = [6, 363]"] ;
661 -> 713 ;
714 [label="X[4] <= 1.5\ngini = 0.016\nsamples = 245\nvalue = [2, 243]"] ;
713 -> 714 ;
715 [label="gini = 0.0\nsamples = 102\nvalue = [0, 102]"] ;
714 -> 715 ;
716 [label="X[3] <= 2.5\ngini = 0.028\nsamples = 143\nvalue = [2, 141]"] ;
714 -> 716 ;
717 [label="gini = 0.111\nsamples = 17\nvalue = [1, 16]"] ;
716 -> 717 ;
718 [label="X[4] <= 2.5\ngini = 0.016\nsamples = 126\nvalue = [1, 125]"] ;
716 -> 718 ;
719 [label="gini = 0.074\nsamples = 26\nvalue = [1, 25]"] ;
718 -> 719 ;
720 [label="gini = 0.0\nsamples = 100\nvalue = [0, 100]"] ;
718 -> 720 ;
721 [label="X[1] <= 3.5\ngini = 0.062\nsamples = 124\nvalue = [4, 120]"] ;
713 -> 721 ;
722 [label="gini = 0.0\nsamples = 44\nvalue = [0, 44]"] ;
721 -> 722 ;
723 [label="X[3] <= 4.5\ngini = 0.095\nsamples = 80\nvalue = [4, 76]"] ;
721 -> 723 ;
724 [label="X[1] <= 4.5\ngini = 0.117\nsamples = 64\nvalue = [4, 60]"] ;
723 -> 724 ;
725 [label="X[3] <= 3.5\ngini = 0.083\nsamples = 46\nvalue = [2, 44]"] ;
724 -> 725 ;
726 [label="gini = 0.165\nsamples = 22\nvalue = [2, 20]"] ;
725 -> 726 ;
727 [label="gini = 0.0\nsamples = 24\nvalue = [0, 24]"] ;
725 -> 727 ;
728 [label="gini = 0.198\nsamples = 18\nvalue = [2, 16]"] ;
724 -> 728 ;
729 [label="gini = 0.0\nsamples = 16\nvalue = [0, 16]"] ;
723 -> 729 ;
730 [label="X[5] <= 2.5\ngini = 0.017\nsamples = 13233\nvalue = [113, 13120]"] ;
586 -> 730 ;
731 [label="X[5] <= 0.5\ngini = 0.116\nsamples = 145\nvalue = [9, 136]"] ;
730 -> 731 ;
732 [label="gini = 0.0\nsamples = 70\nvalue = [0, 70]"] ;
731 -> 732 ;
733 [label="X[3] <= 3.5\ngini = 0.211\nsamples = 75\nvalue = [9, 66]"] ;
731 -> 733 ;
734 [label="gini = 0.42\nsamples = 20\nvalue = [6, 14]"] ;
733 -> 734 ;
735 [label="X[2] <= 4.5\ngini = 0.103\nsamples = 55\nvalue = [3, 52]"] ;
733 -> 735 ;
736 [label="gini = 0.128\nsamples = 29\nvalue = [2, 27]"] ;
735 -> 736 ;
737 [label="gini = 0.074\nsamples = 26\nvalue = [1, 25]"] ;
735 -> 737 ;
738 [label="X[3] <= 4.5\ngini = 0.016\nsamples = 13088\nvalue = [104, 12984]"] ;
730 -> 738 ;
739 [label="X[2] <= 2.5\ngini = 0.022\nsamples = 9156\nvalue = [102, 9054]"] ;
738 -> 739 ;
740 [label="X[5] <= 4.5\ngini = 0.14\nsamples = 53\nvalue = [4, 49]"] ;
739 -> 740 ;
741 [label="gini = 0.26\nsamples = 26\nvalue = [4, 22]"] ;
740 -> 741 ;
742 [label="gini = 0.0\nsamples = 27\nvalue = [0, 27]"] ;
740 -> 742 ;
743 [label="X[4] <= 4.5\ngini = 0.021\nsamples = 9103\nvalue = [98, 9005]"] ;
739 -> 743 ;
744 [label="X[4] <= 0.5\ngini = 0.024\nsamples = 7915\nvalue = [98, 7817]"] ;
743 -> 744 ;
745 [label="X[1] <= 2.5\ngini = 0.002\nsamples = 1217\nvalue = [1, 1216]"] ;
744 -> 745 ;
746 [label="X[2] <= 4.5\ngini = 0.064\nsamples = 30\nvalue = [1, 29]"] ;
745 -> 746 ;
747 [label="gini = 0.0\nsamples = 15\nvalue = [0, 15]"] ;
746 -> 747 ;
748 [label="gini = 0.124\nsamples = 15\nvalue = [1, 14]"] ;
746 -> 748 ;
749 [label="gini = 0.0\nsamples = 1187\nvalue = [0, 1187]"] ;
745 -> 749 ;
750 [label="X[1] <= 4.5\ngini = 0.029\nsamples = 6698\nvalue = [97, 6601]"] ;
744 -> 750 ;
751 [label="X[3] <= 3.5\ngini = 0.032\nsamples = 5597\nvalue = [92, 5505]"] ;
750 -> 751 ;
752 [label="X[5] <= 4.5\ngini = 0.011\nsamples = 1256\nvalue = [7, 1249]"] ;
751 -> 752 ;
753 [label="X[1] <= 3.5\ngini = 0.018\nsamples = 652\nvalue = [6, 646]"] ;
752 -> 753 ;
754 [label="gini = 0.0\nsamples = 207\nvalue = [0, 207]"] ;
753 -> 754 ;
755 [label="X[4] <= 1.5\ngini = 0.027\nsamples = 445\nvalue = [6, 439]"] ;
753 -> 755 ;
756 [label="X[2] <= 4.5\ngini = 0.071\nsamples = 54\nvalue = [2, 52]"] ;
755 -> 756 ;
757 [label="gini = 0.121\nsamples = 31\nvalue = [2, 29]"] ;
756 -> 757 ;
758 [label="gini = 0.0\nsamples = 23\nvalue = [0, 23]"] ;
756 -> 758 ;
759 [label="X[4] <= 3.5\ngini = 0.02\nsamples = 391\nvalue = [4, 387]"] ;
755 -> 759 ;
760 [label="X[4] <= 2.5\ngini = 0.009\nsamples = 234\nvalue = [1, 233]"] ;
759 -> 760 ;
761 [label="X[2] <= 4.5\ngini = 0.037\nsamples = 53\nvalue = [1, 52]"] ;
760 -> 761 ;
762 [label="gini = 0.053\nsamples = 37\nvalue = [1, 36]"] ;
761 -> 762 ;
763 [label="gini = 0.0\nsamples = 16\nvalue = [0, 16]"] ;
761 -> 763 ;
764 [label="gini = 0.0\nsamples = 181\nvalue = [0, 181]"] ;
760 -> 764 ;
765 [label="X[3] <= 0.5\ngini = 0.037\nsamples = 157\nvalue = [3, 154]"] ;
759 -> 765 ;
766 [label="gini = 0.1\nsamples = 19\nvalue = [1, 18]"] ;
765 -> 766 ;
767 [label="X[2] <= 4.5\ngini = 0.029\nsamples = 138\nvalue = [2, 136]"] ;
765 -> 767 ;
768 [label="X[0] <= 8.5\ngini = 0.047\nsamples = 83\nvalue = [2, 81]"] ;
767 -> 768 ;
769 [label="gini = 0.06\nsamples = 65\nvalue = [2, 63]"] ;
768 -> 769 ;
770 [label="gini = 0.0\nsamples = 18\nvalue = [0, 18]"] ;
768 -> 770 ;
771 [label="gini = 0.0\nsamples = 55\nvalue = [0, 55]"] ;
767 -> 771 ;
772 [label="X[1] <= 2.5\ngini = 0.003\nsamples = 604\nvalue = [1, 603]"] ;
752 -> 772 ;
773 [label="X[0] <= 8.5\ngini = 0.056\nsamples = 35\nvalue = [1, 34]"] ;
772 -> 773 ;
774 [label="gini = 0.111\nsamples = 17\nvalue = [1, 16]"] ;
773 -> 774 ;
775 [label="gini = 0.0\nsamples = 18\nvalue = [0, 18]"] ;
773 -> 775 ;
776 [label="gini = 0.0\nsamples = 569\nvalue = [0, 569]"] ;
772 -> 776 ;
777 [label="X[1] <= 3.5\ngini = 0.038\nsamples = 4341\nvalue = [85, 4256]"] ;
751 -> 777 ;
778 [label="X[1] <= 2.5\ngini = 0.013\nsamples = 446\nvalue = [3, 443]"] ;
777 -> 778 ;
779 [label="X[4] <= 2.5\ngini = 0.078\nsamples = 49\nvalue = [2, 47]"] ;
778 -> 779 ;
780 [label="gini = 0.231\nsamples = 15\nvalue = [2, 13]"] ;
779 -> 780 ;
781 [label="gini = 0.0\nsamples = 34\nvalue = [0, 34]"] ;
779 -> 781 ;
782 [label="X[0] <= 9.5\ngini = 0.005\nsamples = 397\nvalue = [1, 396]"] ;
778 -> 782 ;
783 [label="gini = 0.0\nsamples = 357\nvalue = [0, 357]"] ;
782 -> 783 ;
784 [label="gini = 0.049\nsamples = 40\nvalue = [1, 39]"] ;
782 -> 784 ;
785 [label="X[4] <= 2.5\ngini = 0.041\nsamples = 3895\nvalue = [82, 3813]"] ;
777 -> 785 ;
786 [label="gini = 0.0\nsamples = 219\nvalue = [0, 219]"] ;
785 -> 786 ;
787 [label="X[4] <= 3.5\ngini = 0.044\nsamples = 3676\nvalue = [82, 3594]"] ;
785 -> 787 ;
788 [label="X[5] <= 4.5\ngini = 0.053\nsamples = 2184\nvalue = [59, 2125]"] ;
787 -> 788 ;
789 [label="X[2] <= 4.5\ngini = 0.06\nsamples = 1899\nvalue = [59, 1840]"] ;
788 -> 789 ;
790 [label="X[0] <= 8.5\ngini = 0.068\nsamples = 971\nvalue = [34, 937]"] ;
789 -> 790 ;
791 [label="gini = 0.071\nsamples = 923\nvalue = [34, 889]"] ;
790 -> 791 ;
792 [label="gini = 0.0\nsamples = 48\nvalue = [0, 48]"] ;
790 -> 792 ;
793 [label="X[0] <= 8.5\ngini = 0.052\nsamples = 928\nvalue = [25, 903]"] ;
789 -> 793 ;
794 [label="gini = 0.0\nsamples = 61\nvalue = [0, 61]"] ;
793 -> 794 ;
795 [label="X[0] <= 9.5\ngini = 0.056\nsamples = 867\nvalue = [25, 842]"] ;
793 -> 795 ;
796 [label="gini = 0.057\nsamples = 847\nvalue = [25, 822]"] ;
795 -> 796 ;
797 [label="gini = 0.0\nsamples = 20\nvalue = [0, 20]"] ;
795 -> 797 ;
798 [label="gini = 0.0\nsamples = 285\nvalue = [0, 285]"] ;
788 -> 798 ;
799 [label="X[5] <= 4.5\ngini = 0.03\nsamples = 1492\nvalue = [23, 1469]"] ;
787 -> 799 ;
800 [label="X[2] <= 3.5\ngini = 0.002\nsamples = 1007\nvalue = [1, 1006]"] ;
799 -> 800 ;
801 [label="gini = 0.105\nsamples = 18\nvalue = [1, 17]"] ;
800 -> 801 ;
802 [label="gini = 0.0\nsamples = 989\nvalue = [0, 989]"] ;
800 -> 802 ;
803 [label="X[0] <= 9.5\ngini = 0.087\nsamples = 485\nvalue = [22, 463]"] ;
799 -> 803 ;
804 [label="X[2] <= 4.5\ngini = 0.007\nsamples = 284\nvalue = [1, 283]"] ;
803 -> 804 ;
805 [label="X[0] <= 8.5\ngini = 0.016\nsamples = 121\nvalue = [1, 120]"] ;
804 -> 805 ;
806 [label="gini = 0.0\nsamples = 60\nvalue = [0, 60]"] ;
805 -> 806 ;
807 [label="gini = 0.032\nsamples = 61\nvalue = [1, 60]"] ;
805 -> 807 ;
808 [label="gini = 0.0\nsamples = 163\nvalue = [0, 163]"] ;
804 -> 808 ;
809 [label="X[2] <= 4.5\ngini = 0.187\nsamples = 201\nvalue = [21, 180]"] ;
803 -> 809 ;
810 [label="gini = 0.0\nsamples = 28\nvalue = [0, 28]"] ;
809 -> 810 ;
811 [label="gini = 0.213\nsamples = 173\nvalue = [21, 152]"] ;
809 -> 811 ;
812 [label="X[3] <= 2.5\ngini = 0.009\nsamples = 1101\nvalue = [5, 1096]"] ;
750 -> 812 ;
813 [label="X[4] <= 2.5\ngini = 0.079\nsamples = 97\nvalue = [4, 93]"] ;
812 -> 813 ;
814 [label="gini = 0.18\nsamples = 30\nvalue = [3, 27]"] ;
813 -> 814 ;
815 [label="X[3] <= 1.5\ngini = 0.029\nsamples = 67\nvalue = [1, 66]"] ;
813 -> 815 ;
816 [label="gini = 0.0\nsamples = 46\nvalue = [0, 46]"] ;
815 -> 816 ;
817 [label="gini = 0.091\nsamples = 21\nvalue = [1, 20]"] ;
815 -> 817 ;
818 [label="X[2] <= 3.5\ngini = 0.002\nsamples = 1004\nvalue = [1, 1003]"] ;
812 -> 818 ;
819 [label="X[5] <= 4.5\ngini = 0.048\nsamples = 41\nvalue = [1, 40]"] ;
818 -> 819 ;
820 [label="gini = 0.124\nsamples = 15\nvalue = [1, 14]"] ;
819 -> 820 ;
821 [label="gini = 0.0\nsamples = 26\nvalue = [0, 26]"] ;
819 -> 821 ;
822 [label="gini = 0.0\nsamples = 963\nvalue = [0, 963]"] ;
818 -> 822 ;
823 [label="gini = 0.0\nsamples = 1188\nvalue = [0, 1188]"] ;
743 -> 823 ;
824 [label="X[4] <= 1.5\ngini = 0.001\nsamples = 3932\nvalue = [2, 3930]"] ;
738 -> 824 ;
825 [label="X[4] <= 0.5\ngini = 0.005\nsamples = 429\nvalue = [1, 428]"] ;
824 -> 825 ;
826 [label="gini = 0.0\nsamples = 308\nvalue = [0, 308]"] ;
825 -> 826 ;
827 [label="X[1] <= 4.5\ngini = 0.016\nsamples = 121\nvalue = [1, 120]"] ;
825 -> 827 ;
828 [label="gini = 0.0\nsamples = 64\nvalue = [0, 64]"] ;
827 -> 828 ;
829 [label="X[0] <= 9.5\ngini = 0.034\nsamples = 57\nvalue = [1, 56]"] ;
827 -> 829 ;
830 [label="gini = 0.0\nsamples = 17\nvalue = [0, 17]"] ;
829 -> 830 ;
831 [label="gini = 0.049\nsamples = 40\nvalue = [1, 39]"] ;
829 -> 831 ;
832 [label="X[1] <= 4.5\ngini = 0.001\nsamples = 3503\nvalue = [1, 3502]"] ;
824 -> 832 ;
833 [label="X[4] <= 4.5\ngini = 0.001\nsamples = 1550\nvalue = [1, 1549]"] ;
832 -> 833 ;
834 [label="gini = 0.0\nsamples = 975\nvalue = [0, 975]"] ;
833 -> 834 ;
835 [label="X[0] <= 9.5\ngini = 0.003\nsamples = 575\nvalue = [1, 574]"] ;
833 -> 835 ;
836 [label="gini = 0.0\nsamples = 319\nvalue = [0, 319]"] ;
835 -> 836 ;
837 [label="X[5] <= 4.5\ngini = 0.008\nsamples = 256\nvalue = [1, 255]"] ;
835 -> 837 ;
838 [label="gini = 0.0\nsamples = 69\nvalue = [0, 69]"] ;
837 -> 838 ;
839 [label="X[1] <= 3.5\ngini = 0.011\nsamples = 187\nvalue = [1, 186]"] ;
837 -> 839 ;
840 [label="gini = 0.0\nsamples = 19\nvalue = [0, 19]"] ;
839 -> 840 ;
841 [label="gini = 0.012\nsamples = 168\nvalue = [1, 167]"] ;
839 -> 841 ;
842 [label="gini = 0.0\nsamples = 1953\nvalue = [0, 1953]"] ;
832 -> 842 ;
}
